      0.0783555219
     -0.0333241347
      0.2629057311
     -0.0719884224
     -0.0612447338
      0.0793184885
     -0.3322570324
     -0.9146373559
      0.2083460564
     -0.2332356063
      0.3005503941
     -0.4301854387
     -0.0256879441
      0.2985700837
     -0.1411827786
      0.7283925402
      0.0221560410
     -0.3248689867
      0.0769155027
     -0.2908709962
     -0.0440245699
     -0.1708409858
     -0.1685140787
     -0.0782781808
      0.2350527069
      0.3467160052
      0.2408588786
      0.0290604208
      0.0044174231
      0.0785893292
     -0.1258185518
     -0.1346316024
     -0.0422404037
     -0.2078022635
     -0.0255157237
      0.2035926930
      0.1200172402
     -0.0956935952
     -0.0509501072
      0.1462623338
     -0.0871912778
     -0.0431249076
      0.3625353891
     -0.2381351293
      0.0147757126
     -0.0497881780
      0.1814475513
      0.2202245350
      0.0209567939
      0.2743172238
     -0.1807710472
      0.0726001142
     -0.3937218198
     -0.3001376414
      0.2144086449
     -0.2692562574
      0.1340981470
     -0.2106949481
     -0.0936124944
      0.0932767958
     -0.1399797801
     -0.0415324045
     -0.1316899678
     -0.0542684251
     -0.3133040882
     -0.3042229865
      0.2316241603
      0.1454441467
     -0.3550597475
     -0.0895150994
      0.2242953252
      0.5872969276
      0.6239716997
      0.2275833639
     -0.3148641131
     -0.4756697070
      0.3255082417
     -0.3224654512
      0.5877157418
     -0.1310879904
     -1.0326202010
      0.3293500249
     -0.0714770821
     -0.3230818168
      0.4305889959
      0.9337152223
      0.0667723681
     -0.2271272889
     -0.2314518602
      0.6965610442
     -0.9607018339
      0.4117531863
     -0.1710447661
      0.2094703001
      0.2010990670
      0.0275519969
      0.5658740629
     -0.4684929900
     -0.2626110068
      0.5675508294
     -0.5471020376
     -0.4957699142
      0.0787260049
     -0.0246907768
      0.3719105128
     -0.0993118784
      0.1185498080
      0.7027977448
      0.4226081687
      0.2070528077
     -0.8363926633
     -0.1269253985
      0.0190101179
      0.1146682877
     -0.2455814354
      0.1316395487
      0.3148144527
     -0.3243299281
      0.2432419003
      0.6529744690
     -0.1808758607
     -0.1066152670
      0.0056687974
     -0.1554015745
     -0.2331897438
      0.1983770432
     -0.0109170978
      0.1901542055
      0.1962170823
     -0.1763449771
      0.0790711319
     -0.0961504028
      0.0418779307
     -0.4559437310
      0.1074480506
     -0.1795478151
     -0.3656978225
     -0.3411054538
      0.3722890807
      0.2490080926
     -0.0945553284
      0.7178514235
     -0.0232735708
      0.1321327391
      0.2608795974
     -0.0911243453
     -0.2186345595
      0.5294002688
     -0.1002722325
     -0.0782023002
     -0.2336839171
     -0.1605060054
     -0.3814803635
      0.0567925253
     -0.1887592248
     -0.1816399542
      0.1337430740
      0.0383844457
     -0.3347171555
      0.2120886399
     -0.0166765456
      0.3525817231
      0.2127418627
      0.1145216599
      0.1876620696
      0.1061725345
     -0.1683833275
     -0.0864167109
     -0.1882832294
     -0.4022829148
      0.1099939705
      0.1927189858
     -0.0290932397
     -0.2325399924
      0.1820440183
     -0.0088712769
      0.1316177282
      0.2090677299
      0.1196530263
     -0.0324011438
      0.4265928404
     -0.0609899830
     -0.0111291219
     -0.6211887370
      0.1241770223
     -0.0729918536
      0.3422508520
     -0.3381023015
     -0.0304889370
      0.2592867905
     -0.1949156232
     -0.0682789876
      0.3799563689
      0.3914810875
      0.5952618794
     -0.0835469943
      0.1320306437
      0.0230300445
      0.8370018677
      0.0506453213
     -0.0655624677
      0.2615331403
      0.3607474016
      0.5621992732
      0.2185026849
      0.1020533786
      0.2067077297
     -0.1255275070
      0.4299785004
     -0.1209289244
     -0.5738692334
     -0.3515983239
     -0.5506474012
      0.1921781311
     -0.2191257574
     -0.2444348546
      0.2653252841
      0.6398061463
      0.2926831941
      0.3260985457
      0.1890602809
     -0.1925342299
     -0.0707810785
      0.3141565413
      0.0237196879
     -0.4821615672
     -0.1287552772
      0.5197901562
      0.3832605666
     -0.4154573788
     -0.2144339584
     -0.6275291086
     -0.5206151737
      0.1243631458
     -0.2546101805
      0.6028483308
     -0.0855762119
      0.2033198997
      0.0535515896
      0.1066717941
      0.2162474957
     -0.0757876797
     -0.1630960500
      0.2150671337
     -0.1807037862
     -0.2868322738
      0.0991236277
      0.1319286509
      0.1509565212
     -0.0585070745
     -0.0821363496
      0.1979521537
      0.1942057317
      0.0933980260
      0.0090452921
      0.2099563267
      0.2788306451
      0.1477870040
      0.1464064292
     -0.1803257643
     -0.3366442415
     -0.0538674812
      0.1630985459
     -0.2517495972
     -0.0872146801
      0.0627378141
      0.2507091017
     -0.0712133290
     -0.4478333647
     -0.1476262681
      0.1914004803
      0.0554550450
      0.1079045662
     -0.3970978776
      0.2347607252
     -0.0481174260
     -0.2208747316
     -0.0626811680
     -0.0831877607
     -0.6556807802
     -0.4945981431
      0.0464725311
      0.1393517377
      0.4295996377
      0.2649567236
     -0.5173374180
     -0.2309166147
     -0.0979062420
     -0.0074963404
      0.0898450235
     -0.1396253645
      0.0639633180
      0.1902151276
     -0.6924820604
      0.0911407689
      0.0135024849
     -0.1180087324
     -0.3076882293
     -0.1789403850
     -0.2609924403
      0.0785749698
      0.0308105148
      0.0393948903
      0.2232049314
     -0.2754567177
     -0.0751168409
     -0.1959588353
     -0.2618891918
     -0.2520493146
      0.2839602324
     -0.3348779526
      0.2447452319
      0.1373996694
     -0.0381801241
     -0.0057519538
      0.1611316898
      0.2027239174
      0.1509763876
     -0.0501848290
      0.0484209531
     -0.1141809437
      0.3619966479
      0.5972700826
      0.3628844504
     -0.2374335229
      0.4549182535
     -0.0555006396
      0.2203314960
     -0.1199465279
     -0.2802733765
      0.2131436789
      0.0764526048
      0.2467475834
     -0.0292996275
     -0.0894942705
      0.1769751106
     -0.0995226146
     -0.1940874504
     -0.1891782576
     -0.4185553338
      0.2862528692
      0.1582311743
     -0.0834432177
      0.0688079945
     -0.1080962076
     -0.0597492527
      0.3087091204
     -0.0816679631
     -0.0870037306
     -0.4263998406
     -0.0957260763
      0.2792266701
     -0.2416200766
      0.1589329524
     -0.3072928845
      0.1672184187
      0.2454628929
      0.0900241819
      0.3720610945
     -0.1016731711
      0.2588455718
     -0.0963035968
     -0.2311565494
      0.1956723927
      0.0646593100
     -0.2354028405
      0.0665083552
      0.1428246412
      0.1261623565
      0.2459567126
      0.0229068862
     -0.1485132521
     -0.0650313291
      0.1528652210
      0.0672316056
      0.2562704427
     -0.3011876519
      0.1320583044
      0.2652438666
      0.0530311556
      0.1381505654
     -0.1985903932
      0.0134877255
      0.2897617204
     -0.0530650643
     -0.4127980001
      0.3310070680
      0.3430484813
      0.5181638080
     -0.0508112397
     -0.1291437002
     -0.2721978275
      0.3351303170
     -0.4006732214
     -0.1776954667
     -0.1915681516
     -0.2613841149
     -0.0079389852
     -0.0718001835
      0.2550503360
     -0.2292688393
      0.0672897482
     -0.3416270848
     -0.1311733714
     -0.0205406381
      0.4582488514
      0.1856291668
      0.0927322600
      0.0967971615
      0.1639448504
      0.0801715256
      0.0662312305
     -0.3248868557
     -0.2925861039
      0.2344653028
     -0.0939645065
     -0.1474609974
     -0.2850290212
      0.2665436283
      0.2369846332
     -1.0535905961
      0.6932577511
     -0.2000996493
     -0.5717619239
      0.0228601485
      1.4526278883
     -0.5935301896
     -0.6627102298
     -0.9053885588
      0.3428748295
      0.0736326322
     -0.0845042161
      0.1022294968
      0.5642701292
     -0.1174789545
      1.0215482412
     -0.0005398010
     -0.3750563803
      0.1141329629
     -0.5277597232
     -0.3931940083
      0.1833498248
     -0.5302323316
     -0.3810645003
      0.2531210912
      0.9365680497
      0.2586189117
      0.3336770516
      0.0975522103
     -0.0338654934
     -0.1449891196
     -0.2303377540
     -0.3232019390
     -0.1790046098
     -0.1636951062
      0.3535373352
      0.2540503254
      0.0876550938
      0.4715248847
      0.5057522239
      0.4182629085
      0.0918325403
     -0.3615388563
     -0.0502771574
     -0.0819794206
     -0.0600494018
     -0.1153671817
      0.0005354834
      0.2901215544
     -0.0614726703
     -0.0468518005
      0.1823126788
     -0.0515700100
     -0.3487216477
     -0.0556210060
      0.1132789933
     -0.1909776922
      0.0171864189
      0.0869916510
     -0.1183908440
     -0.2220608440
      0.5346330288
     -0.3023818569
     -0.4665476563
     -0.3819529116
      0.1826848676
      0.1508447640
     -0.9049977293
     -0.5048453354
      0.2926565540
     -0.0523724134
      0.3902180260
      1.1101507473
     -0.3491060486
     -0.2835661051
     -0.6764775555
      0.4109440896
      0.0179079809
      0.0979946574
     -0.2836370585
      0.0368097143
     -0.1457687505
      0.0442332988
     -0.2023670324
     -0.0492673653
     -0.0528307195
     -0.0432533119
      0.2515841412
      0.0187233358
      0.2798263740
     -0.2652807857
      0.1523327133
      0.1342841976
     -0.1255198191
     -0.1993227460
      0.1887308351
      0.0946959215
      0.1011029692
     -0.0145319115
      0.2562162982
      0.3547865685
      0.0529854235
      0.1043495006
     -0.3573900236
      0.4623604007
     -0.3031091314
      0.1913236056
     -0.0131722198
     -0.4453091569
     -0.1333439554
      0.6421986186
     -0.2667846374
      0.3134603818
     -0.3627240085
      0.1598230233
     -0.0524034488
     -0.0785656057
      0.0954267749
      0.0330032881
     -0.6569767183
      0.2553897720
      0.2211339881
      0.1346080345
     -0.1335759383
     -0.1264257262
     -0.1502431237
     -0.1766010400
     -0.0950593128
     -0.2335138180
      0.2666181128
     -0.1745809945
      0.2563308522
     -0.1923877159
      0.2700029940
      0.0762686435
     -0.0465579685
     -0.0019910463
      0.0723245037
     -0.1180768768
     -0.0953462820
      0.0444189428
     -0.2635333804
     -0.2254202621
     -0.3085324697
      0.1592032022
      0.3881678762
      0.3554215084
     -0.3401478136
     -0.0570187392
      0.3912540302
      0.2268753467
     -0.2186476044
      0.2833021795
      0.1655054150
      0.3779964871
     -0.2419296314
     -0.0472391227
      0.1022788731
      0.5459879310
      0.1263867884
     -0.4176483841
     -0.4503721672
     -0.2003690921
      0.2146318124
      0.1793714297
     -0.1542237039
      0.3839398065
      0.4947267482
     -0.0802382820
      0.2329828657
      0.1890581168
      0.2381669622
     -0.2742111974
      0.1906197807
      0.2826091454
     -0.0472997786
     -0.2800747873
      0.0009570822
     -0.1839418710
      0.6598779457
     -0.0810653557
      0.1762167136
      0.2473645803
     -0.0224273643
      0.1585302890
      0.1551352813
      0.3043650863
     -0.0858724998
     -0.0122182057
      0.1073148075
      0.4419185950
      0.0773676279
      0.2900216776
     -0.0657904474
      0.2066960573
      0.0729099905
     -0.1887105416
     -0.2505337366
     -0.0018260725
      0.0113456608
      0.0675898956
      0.5977779146
     -0.0920379847
     -0.4466387642
      0.3190194979
     -0.0210299344
      0.1529024033
      0.1291912050
      0.0819983437
      0.2207531610
      0.4190824492
     -0.2603231280
     -0.1627223865
     -0.6598327125
     -0.1983773776
     -0.9251053878
      0.2261271081
      0.2281955096
      0.0569208390
      0.0212802177
     -0.3245435915
     -0.0751397019
     -0.2225189708
      0.0840761446
      0.0685695342
      0.0598892131
      0.0114333412
     -0.0367680204
      0.0848494328
     -0.2585232903
      0.0319782052
      0.4087601540
     -0.0447124288
     -0.0101337421
     -0.1615997853
     -0.1232146540
      0.1373068858
      0.0782929477
     -0.0648685698
      0.0320765049
      0.5530595491
      0.1633231269
     -0.1894705262
     -0.3038165215
      0.0589252524
     -0.7063492054
     -0.2071797322
     -0.1331778025
      0.1176737059
     -0.1464833681
     -0.3139914459
      0.1699558579
      0.0209197970
     -0.1939795922
      0.0555446999
     -0.1034716282
     -0.1304512279
      0.2283256908
     -0.2058854489
     -0.4151361452
      0.1600229156
      0.1774536170
     -0.3620073667
      0.8579695369
      0.2865450037
     -0.1022981852
     -0.4368981603
     -0.1413230869
      0.7828671865
     -0.0361352052
     -0.6622117495
      0.3532187921
     -0.3583615877
      0.9532118606
     -0.3541396898
     -0.0091641644
      0.0782834000
     -0.1089843753
     -0.4724940021
      0.6685137739
     -0.2509274591
     -0.1639612300
     -0.0852825947
      0.0794130115
      0.0627562901
      0.1303922652
      0.2387076302
     -0.0791578221
      0.0579544269
      0.0518706766
      0.0065908532
      0.1210037224
      0.2863871051
     -0.2517088441
     -0.1046641053
     -0.0427051400
      0.2645738354
     -0.1840925831
     -0.2749195584
      0.0896819400
     -0.0398343529
     -0.4094979636
     -0.1231634161
      0.2955195098
      0.1712535255
      0.6931736404
     -0.1757815738
     -0.2251709990
      0.0914199884
      0.2218288061
     -0.0904991920
     -0.1158508879
     -0.2297924212
      0.6553739340
     -0.2922311188
      0.0829005671
      0.1350718093
      0.0407631967
     -0.1989313693
     -0.0566867746
     -0.3519081530
     -0.0770525868
      0.0310407223
     -0.1927306022
      0.0617752171
      0.0653426748
      0.3100442142
     -0.3102167058
     -0.5419984760
     -0.0214146514
     -0.5894176341
      0.0608769240
     -0.0731218590
      0.4078217645
     -0.1607318267
      0.3790810018
      0.0332714486
      0.1775624105
     -0.1103664328
      0.2236357166
     -0.4459413368
      0.2856198821
      0.1525521398
      1.1469494050
     -0.4566765025
      0.0724151345
     -0.2294497236
      0.0314603323
      0.2750915954
     -0.0203600072
     -0.6024819323
     -0.2064361339
      0.0468912968
      0.3525150449
      0.0104955290
      0.1949232138
     -0.3577403975
     -0.1478908409
     -0.7528413479
      0.3645588622
      0.1552030578
      0.1835743314
     -0.1530116950
     -0.1706326606
     -0.1728538807
      0.1372214061
      0.2548234350
     -0.2822164371
      0.1680624559
     -0.0178534274
     -0.2330945361
     -0.2389806104
      0.0696587220
     -0.2358487595
      0.2282168225
     -0.3686362023
     -0.0882988574
      0.0073667411
     -0.3197481502
      0.3505575754
      0.0119475748
      0.0049755626
      0.6309103957
     -0.0877286357
     -0.0639961050
     -0.6624922186
      0.3209508449
     -0.3025434900
     -0.0486045570
     -0.0149193229
      0.3122556830
     -0.2992413446
     -0.0286319124
      0.0597037299
     -0.1211992460
     -0.0263268572
      0.1119226761
      0.0108970346
     -0.3272565093
     -0.0326778770
     -0.0839606905
     -0.1095516895
      0.2898651759
     -0.1764135386
     -0.1461885978
     -0.1671210388
     -0.1263799064
      0.1197191165
     -0.2278514689
      0.0995546332
      0.0865909218
      0.0940463349
     -0.2055187056
      0.0413633138
      0.0366007095
      0.3790750531
      0.2307617407
      0.2485233140
     -0.0565572728
     -0.1195630205
     -0.5118856265
     -0.1740344672
     -0.2100111834
     -0.1977926555
      0.4290909047
      0.3307144273
      0.2924789127
      0.8578963655
     -0.7899801186
      0.1860915161
      0.0677221936
     -0.7513021117
      0.1113116541
     -0.2108975979
     -0.1508949614
      0.3435917294
      0.2626791206
     -0.1200334388
      0.3170261877
      0.0551509246
     -0.3042337364
     -0.3867198601
      0.6171814637
      0.0510610405
      0.5103205919
      0.2771567310
      0.0032065058
     -0.2317605242
     -0.0334360246
     -0.5500279763
     -0.0911325513
      0.3986317152
     -0.3822679781
      0.0618535166
      0.2486485489
      0.1093960825
     -0.2912247655
     -0.1736761916
      0.4783346932
      0.5835665438
     -0.6312039358
      0.2903252825
      0.2245787981
     -0.3483922945
      0.1011294867
      0.2071736649
     -0.3913617199
     -0.1992110496
      0.2093623187
     -0.0814937533
     -0.0696545354
      0.3038893367
      0.6535642622
      0.2482851835
      0.1351960414
     -0.4321131111
      0.2592125671
      0.0721799063
      0.0681516953
      0.0523445496
      0.3373312884
     -0.0430824994
      0.0255651608
     -0.1907438320
      0.4719686664
     -0.2432974842
     -0.0428089421
     -0.2320843046
     -0.1772539304
      0.2536574462
      0.1136965575
      0.0546579599
      0.1843022748
     -0.2998544917
     -0.2659987767
     -0.3729723933
     -0.1868486382
     -0.1593745380
     -0.3261911732
      0.5973042875
      0.1758669981
      0.3368637599
     -0.1577282181
     -0.2279765800
     -0.1761586224
     -0.4452449790
     -0.0572922873
     -0.0462500557
     -0.0020007993
     -0.3610375565
     -0.2525430239
      0.2928837469
      0.3642017189
     -0.1377668404
      0.0350583041
      0.0599815614
      0.0805114373
      0.2629048144
      0.0833189463
     -0.2984157924
     -0.1850738320
      0.0151750466
     -0.1105214492
      0.0852052434
     -0.1098218649
      0.0918726289
     -0.0072727141
      0.1639115281
     -0.2903515693
     -0.3313601567
      0.3118986457
     -0.1830162976
      0.0613889574
      0.1352877782
      0.1517107233
      0.0620294379
      0.0561633972
      0.1600126133
      0.0013621799
     -0.1002333236
      0.0530093726
     -0.0772135053
      0.6005258267
      0.4509674723
      0.2103524123
     -0.1231095754
      0.2161326067
      0.1245287502
      0.2632299806
      0.0433677170
     -0.1354049777
      0.3849597389
     -0.4402699907
      0.0215915822
      0.3315222701
     -0.2527660833
     -0.0980555649
     -0.2303240702
     -0.2812794702
     -0.1519964325
     -0.0315639027
     -0.0704821444
      0.3419310055
      0.4108752455
      0.0925773911
     -0.2273550437
     -0.1666718649
      0.0519319819
      0.1936867884
     -0.2782776829
      0.1321489695
     -0.0992666383
     -0.1276786269
     -0.0589215597
     -0.0628986283
      0.2000715161
      0.0504227116
     -0.0251731580
      0.0245736947
      0.3672443336
      0.4119696461
      0.1069271240
     -0.1966844760
      0.2021770973
     -0.1511783404
     -0.3185899306
      0.3977641512
      0.2330171279
      0.2566971358
     -0.2874879036
     -0.1363304761
     -0.0696162056
      0.1193668268
     -0.0299785837
      0.4030695709
     -0.0239744448
     -0.0928905313
     -0.1343890616
      0.3090680215
     -0.0611208177
      0.1577583622
      0.0469651459
     -0.1512081535
      0.0152432160
      0.2243809898
     -0.3613704497
      0.2973243256
     -0.0441025949
      0.2168812048
     -0.0621537134
     -0.1665576620
     -0.2409552507
     -0.0553590970
      0.0677666715
     -0.0218014143
      0.1915287991
      0.0347038454
     -0.0016523708
     -0.2896040613
     -0.0225608912
      0.5112823837
      0.2310167077
      0.4259764519
     -0.5877815128
     -0.5964500781
     -0.8054374321
      0.0476198351
     -0.3668555260
      1.1133768099
     -0.5420383435
      0.2981743550
     -0.4231273887
     -0.1859393613
     -0.1501653979
     -0.1011829537
      0.1065234837
      0.0781216430
      0.2330162105
      0.0574077903
     -0.4960223153
      0.2447584163
     -0.0288207424
      0.0676287664
     -0.0333500813
      0.1192128018
     -0.3601158475
      0.2813125065
      0.0888803116
      0.3300995342
      0.3451528829
     -0.1318783393
      0.0060891513
     -0.5499959132
      0.0029887118
     -0.1695320094
     -0.1326422487
     -0.2554047970
      0.0873082545
      0.0867518921
     -0.1554571227
     -0.0206663601
     -0.0681779253
      0.0029109702
     -0.3523259553
     -0.0592434794
     -0.0993815400
     -0.0205909750
     -0.2940620096
     -0.0824109623
      0.0410814787
      0.2342838686
      0.0633683409
      0.0445868359
     -0.0601844548
      0.1139889215
     -0.1788232060
      0.1538285434
     -0.0260586598
     -0.1226887063
     -0.1514202733
     -0.0012457698
     -0.0811669570
      0.0906830079
     -0.1765978962
     -0.0845856907
     -0.1357979137
     -0.0339784323
     -0.0434453466
     -0.1853810072
     -0.2155557633
      0.3520606267
      0.1483219851
     -0.1447261626
      0.1841698272
     -0.1992084888
      0.1846601420
     -0.2055855960
     -0.0210707664
     -0.1601733049
     -0.1305214938
      0.2787242686
      0.1263575560
     -0.0690861265
      0.1884906593
      0.1429319509
      0.0917444048
     -0.3125890841
     -0.1410215678
     -0.0951842079
     -0.1557975865
      0.0045479158
      0.1311163783
      0.3164316774
     -0.3123776187
      0.2275367886
     -0.3141460210
      0.0244338716
      0.1539814430
     -0.2705364257
     -0.0806500910
     -0.2017972932
      0.0829108240
     -0.2879741686
      0.0941653951
     -0.1931601518
      0.0925136450
     -0.0794801980
     -0.2369056545
      0.2043217835
     -0.2320576219
     -0.0788431016
      0.1036933664
     -0.1465831517
     -0.2851665163
     -0.1377934739
     -0.0081318269
      0.0611487486
      0.0132176627
     -0.2307076840
      0.1256890879
      0.0131229736
     -0.0322633283
     -0.1162632933
     -0.1177973389
      0.3287944293
      0.1581374694
      0.1222732924
      0.0611771368
     -0.3791754455
     -0.0815884335
      0.0043294605
     -0.0690965398
      0.2338056277
      0.2012161587
     -0.2824619245
     -0.1763816279
     -0.2932841824
      0.1363312796
      0.2502770964
     -0.1573332555
      0.0693115177
      0.2879357629
      0.1829598055
      0.0846997633
     -0.1749015331
     -0.1548825814
     -0.3264704050
     -0.1809284415
      0.1887047690
      0.1919998403
      0.1959775306
      0.0531827580
      0.1324347684
     -0.1359836624
     -0.1747711979
     -0.3503462191
     -0.1238287616
      0.1255780751
     -0.2107678879
     -0.2990583930
     -0.2418541233
     -0.2296169999
     -0.1468565542
      0.1881060601
     -0.0465124691
     -0.1999071514
     -0.0740675736
      0.0804463976
     -0.1651296269
     -0.0470782190
      0.0061132843
     -0.2281480312
     -0.2783932850
     -0.3476094782
      0.3704848483
      0.2461570960
      0.1654404417
     -0.0235812944
      0.0614040806
      0.1172749379
     -0.0838917121
     -0.0697340926
     -0.0439925107
     -0.2533443739
     -0.0303104253
      0.2829372409
     -0.0074987876
     -0.1034735734
      0.1371117054
      0.0250150299
      0.2375138377
      0.2627543777
      0.1223476055
     -0.1143386124
     -0.3401503862
      0.0114865647
     -0.1330613647
      0.0185390763
      0.0836923948
     -0.2247963827
     -0.0438833559
     -0.0490786856
     -0.0451131839
     -0.0221391239
      0.0261153064
     -0.0118255382
     -0.2172363422
     -0.2704971879
      0.0665625822
     -0.0809526402
      0.1422210117
      0.3239486203
     -0.3452823679
     -0.0709137330
      0.1513711835
     -0.3504893638
     -0.0937306598
     -0.2470694184
      0.2347168282
     -0.3076370078
     -0.1100305509
      0.3550986113
     -0.2570898787
      0.1247957845
      0.2186214744
      0.0753595729
      0.3336018778
      0.0345784765
     -0.0537892376
     -0.0846947792
     -0.1312159441
      0.1530606820
      0.1948009398
      0.1720330216
     -0.1804191444
      0.1075657768
      0.0514880468
      0.1949169540
      0.1124839191
      0.0903805989
      0.0194456270
      0.1319702737
      0.0230878572
     -0.0138108538
      0.0075592513
      0.0233104414
      0.1856494784
      0.0359302202
     -0.1146260865
     -0.1327121544
      0.0695411003
     -0.0949206304
     -0.1641211325
     -0.3147026136
     -0.0081375049
      0.0661703008
      0.2832334918
     -0.0704958041
     -0.0757302196
      0.0295980542
      0.2414161667
      0.0583030973
      0.2376954854
      0.3485908924
     -0.0124288276
      0.1458515706
      0.0746566061
     -0.3497509391
      0.2658983130
      0.3532176233
     -0.1298380820
     -0.0504746808
      0.0942976689
      0.2188018465
      0.1371388810
     -0.2506057686
      0.1963588241
     -0.1123967659
     -0.0389001366
      0.0852127460
     -0.1296047596
      0.0206380443
     -0.2091886626
      0.0007746832
      0.0372760637
     -0.1003714601
     -0.1457988357
      0.1160011989
      0.0734101868
      0.1738970954
      0.1729610450
     -0.0405325986
     -0.1122175794
      0.2197392607
      0.0717358823
     -0.2386687323
      0.2018757332
      0.1073802734
     -0.0472415472
      0.3641128926
     -0.0380063164
      0.0011416368
     -0.0884159135
     -0.0728196899
     -0.0873547798
     -0.1205142154
      0.1153955772
      0.0848668030
      0.0154576755
     -0.0192630081
     -0.1958199321
      0.0613823159
     -0.1814919817
     -0.0790470299
     -0.3373103637
      0.3347399598
     -0.0032557304
      0.1594718521
      0.1192684598
     -0.1497978417
     -0.1687350342
     -0.2398570717
     -0.1486394333
      0.1041764581
      0.0403456232
     -0.0670362683
     -0.2737421745
     -0.0853278078
      0.1139750998
      0.2271696583
     -0.2156343834
      0.2439810660
      0.2479717852
      0.4126549072
     -0.1034192332
     -0.0458074563
      0.0946080670
      0.1352604066
     -0.0088902806
      0.1171770825
      0.5033506560
      0.1475624683
     -0.0907433509
      0.0026927693
      0.3672858590
     -0.1387042885
      0.1685212381
      0.2160808759
     -0.1599330401
     -0.2624722667
      0.0090947933
     -0.3082752455
      0.0068068680
      0.4876425427
     -0.1512952526
      0.5015471959
      0.1588521279
     -0.3392308385
      0.3936972444
     -0.0578657158
     -0.2258149187
     -0.2901349509
     -0.1991995983
      0.1995823149
     -0.1829885001
      0.0436180343
      0.0647603965
     -0.1695486443
      0.3907302146
      0.0041708914
     -0.0868072530
     -0.3429739854
     -0.0952002588
     -0.1372655887
     -0.2560510741
      0.0017287660
     -0.0303420229
      0.1605698671
     -0.2329688973
      0.2180088152
     -0.1750508819
     -0.2307316850
     -0.1350855274
     -0.1241705477
      0.0530249133
     -0.2238670906
     -0.2903218887
     -0.1122396250
     -0.4940095601
      0.0804860261
     -0.0240507024
      0.1381819547
      0.1243881192
     -0.2537256199
      0.2023139521
      0.4420865722
     -0.2230657212
     -0.1497794415
     -0.2225371820
     -0.1370561824
     -0.1514856773
     -0.1744215189
      0.1979218375
      0.0101715114
      0.0330034977
     -0.1396937195
      0.2937080667
     -0.3098780953
      0.0403565753
      0.0315552419
      0.1985363541
     -0.0252478022
      0.0558132132
      0.0682670411
      0.0300278125
      0.1864733871
     -0.1923545587
     -0.2922534277
      0.1857388685
      0.3871625204
      0.3912359951
      0.1274215024
      0.1616621722
     -0.1323589927
     -0.0937803526
      0.1246310751
      0.1796662246
     -0.0670673990
      0.3011893581
      0.1812479269
      0.0247007954
      0.3381768982
      0.5071845793
      0.3007375523
      0.0074175436
      0.0849889475
      0.1984472615
      0.1186823894
      0.0069860675
     -0.2791548590
      0.0515758854
     -0.0972980696
      0.1835517853
      0.1304763617
     -0.0152697111
      0.1095355297
     -0.0508000246
     -0.0878663253
      0.0767049047
      0.2773105387
      0.1521994509
     -0.0061899286
     -0.2057086055
     -0.0452490064
     -0.1479442536
     -0.1850595223
     -0.0281501493
     -0.1879538086
      0.0969259467
      0.0280926698
      0.1390242581
      0.0132756202
      0.0232176852
      0.0420019065
      0.0715390322
      0.2564121678
     -0.1883620200
     -0.1956201455
     -0.3414044100
      0.1419544491
      0.2061395617
      0.0795840117
     -0.0558394363
     -0.0705794638
      0.0633327690
      0.0273873866
      0.2438651261
     -0.2995099303
     -0.1904566729
      0.3105049648
      0.2854579390
      0.1202951163
     -0.3484237776
     -0.2702936093
     -0.0358462082
      0.2363249517
      0.0619048778
      0.1674425235
      0.0047177228
      0.1665847025
      0.1000903966
      0.1928556564
      0.1235481525
      0.1069981917
      0.0054766979
      0.2802405507
     -0.2640886035
      0.1315099417
     -0.1430710088
      0.0800781849
     -0.3927529383
      0.6533366966
     -0.5011916397
     -0.8110604921
      0.8070713377
      0.9862292782
      0.1791293647
      0.2537801447
     -1.0284000250
     -0.5104581465
      0.6603495701
     -0.1521163589
     -0.4741795550
      0.4092309107
     -0.2141064096
      0.2545728498
      0.0557209975
     -0.0148086753
      0.5161561528
     -0.7152319256
     -0.1250304655
     -0.2042275451
      0.1582198275
      0.1387336568
      0.2714615081
     -0.0625505230
     -0.2719101094
      0.0272385403
      0.2293922848
      0.1163630136
      0.1686630185
      0.0554048096
      0.0536146154
      0.2591226067
     -0.1666755133
      0.0299255352
      0.1073171262
     -0.1905305230
     -0.0055298913
     -0.2222544610
     -0.3684325311
      0.0574220344
     -0.4841840822
     -0.1408126920
     -0.2453243323
      0.4588714778
      0.0258981679
     -0.0196594823
     -0.0813782679
      0.0509283475
     -0.3163997601
      0.4567275722
     -0.0661895668
     -0.1273825410
      0.1441203682
     -0.0465808244
      0.3300518834
     -0.2842162161
     -0.0830216308
      0.1291010915
      0.2939503937
      0.0181049557
     -0.2191019936
     -0.0202006578
     -0.0615163704
      0.3976852464
      0.1940705711
      0.3494019718
      0.2957694158
      0.1344231489
     -0.1760592832
     -0.0172691103
      0.2339399256
      0.0630871016
     -0.1980803012
      0.0296593322
     -0.2702805002
      0.3794208545
     -0.2129862883
     -0.2399439660
      0.1862115487
      0.1114129010
     -0.2865249286
     -0.0022047124
     -0.0902690275
      0.2976079725
     -0.0406766493
     -0.1710805681
      0.1601886564
      0.2329148218
      0.0930543478
      0.2170997624
      0.2216116468
      0.0220216939
      0.0590835799
     -0.1900268181
      0.1035999713
     -0.0507975080
      0.0000442938
      0.2071477513
      1.0387560898
     -0.2704045342
     -0.3340523418
      1.7977110988
     -1.3199707414
     -0.3466841568
      1.2084758930
      0.0227859871
      1.5417810859
      0.6012682218
     -0.1776292375
     -0.5407057674
      0.3949451765
     -1.2443303131
      0.6189257020
      0.0111420923
      0.3043676324
      0.0507042405
     -0.6405614547
      0.7389241461
      0.2081706329
      0.1414222124
     -0.1908837180
      0.0787593570
      0.0510059102
     -0.1943690722
     -0.1984099325
      0.2303299994
      0.0526820333
     -0.1422010060
     -0.2117070911
     -0.1232946311
      0.3803095418
      0.2715246301
      0.1230256411
     -0.2658463974
     -0.2426193681
     -0.2287567717
     -0.1353202607
     -0.0002717982
     -0.1006207848
     -0.0082503755
     -0.0081899052
     -0.2108250592
     -0.3097142079
      0.0471592367
      0.2192793144
      0.1142405859
     -0.0105984567
      0.3829220666
      0.1301842715
     -0.0902154968
      0.2576577651
     -0.0209245996
     -0.1233485371
     -0.1005880698
      0.0928584780
      0.2619921727
     -0.0401565600
     -0.1491151202
      0.0043450767
     -0.1623416695
     -0.4229161618
      0.2878426200
     -0.0823040204
      0.1168426726
      0.0613448135
     -0.1802983183
      0.0105650730
      0.0618200924
     -0.3758901668
     -0.3454154473
     -0.2671687761
     -0.1737909690
     -0.2425520113
      0.0572557899
      0.3139968697
      0.1974060276
     -0.0648397923
     -0.1842851129
      0.6794718425
     -0.2833320802
      0.4299707264
      1.0853904831
     -0.9167940915
     -0.5374495383
      0.6034807254
      0.9250694371
     -0.3223536395
     -0.9298165537
      0.3348364104
      1.5799848393
     -0.1192350865
     -0.2063472596
      1.5332427359
     -1.5287817522
     -1.1995554952
      0.9535567619
     -1.1169332739
      0.1649926850
      0.2342040918
     -0.3152056917
     -0.4628686827
      0.2644548951
      0.3869410433
     -1.0350578394
     -0.4003085251
      0.9527561009
      0.0292219416
     -0.6240007074
     -1.1021662250
      0.4553644773
      0.8756015086
     -0.9851344261
      0.6032074369
     -0.5311422642
     -0.0486215726
     -0.5997911000
      0.5060922775
     -0.8483191894
     -0.0707878865
      0.0518340123
      0.0591817823
      0.7844077921
      0.1737667775
      0.2664641335
     -0.9229741792
      0.3014606177
     -0.3556621798
      1.1128913517
     -0.2418655956
      0.2379964145
     -0.4895364074
     -0.2473393517
      0.6887153326
      0.5386821613
      0.0472877200
      0.5380163803
      0.8284371979
      0.0572639972
      0.1515041539
     -0.5082229493
      0.6201683506
     -0.1258811311
      0.6737987131
     -0.2836066897
     -0.3462035642
      0.9281044555
      0.0956965520
      0.1196819210
     -0.4173545733
     -0.4401712332
      0.1112088465
     -0.1607080179
     -0.1202125187
     -0.4994372526
     -1.1468952136
     -0.4589668474
     -0.2271513302
      0.4744317255
      0.9451458868
      0.0455744742
     -1.2382957497
      0.3600871211
      0.0204489045
     -0.4084419635
      0.0582415045
     -0.0964901931
     -0.9417385469
     -0.2623652416
      0.5627831177
     -0.1042676277
      1.4983335529
      0.3026081454
     -0.1861000659
     -0.6354357778
      1.6137911204
      0.5777795744
     -0.2723841112
     -0.2686536546
      0.3527849078
      0.3889983377
     -0.8797962740
     -0.1598780445
     -0.2586355955
     -0.8377657556
     -0.2085824103
      0.8085819702
      0.4770127519
      0.2308150387
     -0.5564510435
     -0.2101870912
     -0.3937202743
     -0.5358157604
      0.9325930467
      0.1048680463
      0.5451455418
     -0.8101702832
      0.0909013007
     -0.7957842872
      0.4109138372
     -0.1396886410
     -0.3500199964
      0.0000901026
     -0.9663061728
      0.3708331670
      0.5920172414
     -0.2070977422
     -0.1174999456
     -0.4917216184
     -0.1618453538
      0.1067009157
     -0.5692598691
      0.3870789161
     -0.1339265006
      1.4045169153
     -0.7701231802
      0.6030562026
      0.5579192663
     -0.4644373690
      0.7240853317
     -0.6339737370
      0.1620619685
     -0.1999409930
     -0.4158537784
     -0.0428430914
     -0.7096641147
     -0.2081338971
     -0.5116208916
     -0.4389012868
      0.4237767626
      0.0943768185
      0.3858004721
      0.4579668141
     -0.7246169332
     -0.1889054592
      0.2990972718
      0.9123158618
     -0.0223433469
      0.1208728848
      0.6969904071
     -0.5096934886
     -0.5393593408
      0.4269786891
     -0.2340603865
      0.4571683553
      0.4210246995
      0.3081486765
     -0.5767155532
      0.1916213292
     -0.6766317635
     -0.0410034588
     -0.5343450171
     -0.2529634905
     -0.2378985636
     -0.5693344568
     -0.1536437177
     -0.0757016661
     -0.7011575372
      0.4858307618
     -0.0545378986
      0.2048623435
      0.6967447277
     -0.2065812671
      0.2204946840
      0.2641926703
      0.0181227891
     -0.1468941676
      1.3929799430
      0.1346221855
     -0.2900707054
      0.5105005818
      0.6198397180
     -0.9441203824
     -0.1651301246
      0.2728100028
     -0.8762793294
     -0.6080358567
      0.3422737074
      0.9600884424
      1.1536556725
      0.5608330705
     -0.9924982186
     -0.3483078101
      0.2017854584
      1.0598147190
     -0.3475882902
      1.0845811285
     -0.8771828645
     -0.0589919222
      0.1478331484
      0.3649965013
      0.0991472855
     -0.4636999991
      0.7901099876
      0.1937016394
      0.7166648992
      1.2074885640
     -0.5732007991
      0.1296159781
      0.3788195477
      0.2688380060
      0.9350570053
      0.0325358787
      0.4287565306
     -0.0755502340
     -0.0511275130
     -0.3243593641
      0.4290559264
      0.0452077630
      0.3107317119
      0.3244163132
     -0.7693367623
     -0.0551151425
      0.2704124922
     -0.0440831861
      0.0281059624
     -0.5154338222
      0.5235182505
     -0.4339935985
     -0.1876719569
     -0.4850350898
     -0.4733952939
     -0.9929177541
     -0.3962812235
      0.2693459554
      0.8047536580
      0.7827941446
      0.1220591128
     -0.5704872942
      0.0442628374
      0.3082882627
     -0.3485711931
     -0.2077498615
     -0.3381354613
     -0.1371113847
      0.3152358354
      0.2018954134
      0.1367804670
      0.1050193800
      0.5949190551
     -0.2904197687
     -0.2714346530
      0.0465380366
      0.4526889990
     -0.9153540253
      0.5025927267
      0.7420039514
      0.6484870361
      0.4383955995
     -0.8205010950
     -0.5653295714
      0.7068115506
      0.7405014345
     -0.3097267750
     -0.0181951954
     -0.2008594398
     -0.6152555950
     -0.4978711261
     -0.4178393696
     -0.3683197828
      0.3946157172
      0.3279047373
      0.7226183614
      0.3981919580
     -0.0004707997
     -0.5066210263
     -0.4617108348
     -0.1218176429
     -0.6261417061
      0.0468191194
     -0.0077282333
     -0.7014850166
      0.4404832988
     -0.2486731903
     -0.2043779876
     -0.0915112653
      0.9817825894
      0.0452590946
     -0.3519821545
      0.0953284798
     -0.5128853573
      0.2986737720
     -0.0790576309
      0.0291385550
     -0.0279594729
      0.2963439980
      0.5222882268
     -0.3155850263
     -0.0271344544
     -0.2973466204
     -0.1891024170
     -0.2438358545
      0.0999670915
     -0.4474794281
      0.3730395003
      1.0168865481
      0.2424501612
     -0.2856861158
     -0.1500385456
     -0.0134078409
      0.0960322015
      0.5475749258
      1.1596902469
      0.0811261327
     -0.4469967870
      0.3664936703
      0.3390791034
      0.3005813270
     -0.0110051505
     -1.3076790123
     -0.4939033121
     -1.0143986234
      0.3686210495
     -1.3815114764
     -0.0699156488
      0.1620170949
     -0.5227931920
     -0.3748678752
     -0.1482836479
     -0.3217312922
     -0.0781104389
      0.1664661906
     -0.1016901939
     -0.3774569345
      0.4647520285
      0.6068558507
     -0.3177736678
     -0.0491580894
      0.0281560603
     -0.6946057287
     -0.8224121327
     -0.2475806953
     -0.3570327230
      0.1184818318
      0.1126294616
      0.4643756350
      0.3599419791
      0.9311585992
      0.4167978336
      0.6287186409
     -0.3694321206
      0.4002936550
      0.2757735045
     -0.6957753091
      0.0365216541
      0.1360655780
     -0.4350828073
     -0.5637946204
      0.7155499615
      0.7495893138
      0.3593981967
      0.1979146664
     -0.6265204121
      0.3761271844
      0.1435187777
      0.3833145523
     -0.6650562127
     -0.4444511008
     -0.0231863093
      0.0452400494
      0.6129458310
     -0.6077500617
     -0.1503316975
     -0.5706283124
     -0.2231091274
     -0.0643158045
      0.5372773733
      0.6225225034
      0.6025413593
      0.4176614908
     -0.2912427380
     -0.2936998141
      1.1291845777
     -0.3027937930
      0.1529891338
      0.3129018968
     -0.0751784836
      0.2665978434
      0.7756249296
      0.2436872966
      0.7460553098
     -0.2762670332
     -0.5226869042
      0.1636835048
     -0.1594427597
     -0.3650483153
      0.3453241033
     -0.1212564055
      0.6359863332
      0.1097899261
     -0.5345804443
      0.6383949667
      0.0030210922
     -0.2205604071
     -0.0886664935
     -0.5497161720
      0.1959063158
     -0.8753238911
      0.7922104786
      1.0430670186
     -0.7867533490
     -0.9942507516
     -0.9385137975
      1.0995923458
     -1.1617976999
      1.1040437533
      0.0117325775
      0.1331425439
     -0.4733866688
      1.4416388709
     -0.9755295464
     -1.6496679583
     -1.0352843713
     -0.4485088567
      1.8530310965
     -0.2621158723
     -1.6499662441
     -0.6860131136
      0.7528752555
      0.3078196444
      0.1018714992
     -0.0547940218
     -0.0554918169
      0.0112761842
      0.0097573861
      0.0191777646
     -0.0053371288
      0.0132496481
      0.0357545949
     -0.1127861523
     -0.0010898966
     -0.0600957025
      0.0017813816
     -0.0190762457
      0.0086078541
     -0.0075842378
      0.0276364439
      0.0050154036
      0.0017256430
     -0.1794330153
