     -0.0051987263
      0.1151332366
      0.0150430978
     -0.1365643560
      0.1342518048
     -0.1477834323
     -0.0951608449
      0.0572479573
     -0.0598807586
     -0.0450307311
     -0.2562166704
      0.0033060016
     -0.2003909925
      0.1523374087
     -0.1119743299
     -0.0111814959
     -0.1832538845
      0.0527882759
     -0.3180144324
      0.2560944382
     -0.0231464006
      0.2738335638
      0.0437227726
      0.2027928957
      0.1525073730
     -0.2313213127
     -0.0005941060
     -0.1330350928
     -0.0211867776
     -0.1307958109
      0.2159813203
      0.0439298349
      0.1507189156
      0.1268881805
     -0.1776006163
      0.2483154522
      0.1498096616
     -0.2091656063
     -0.0084498679
     -0.0886352145
      0.0621766221
      0.2244391821
      0.1502787429
     -0.0929608531
     -0.1953980224
      0.2185540732
      0.1863503236
     -0.1408902804
      0.0671591288
     -0.1830208518
     -0.0716793015
      0.2693592822
      0.1847326511
     -0.3087037934
      0.0200735235
     -0.0254440987
     -0.2286339453
      0.1251649833
      0.4148637855
     -0.0447858440
     -0.0589447236
      0.0307266419
     -0.2104725177
     -0.1957660114
      0.1405676584
     -0.1516525960
     -0.0796381364
     -0.0874970219
     -0.3820139716
     -0.1133964589
      0.4528397507
      0.2961385409
     -0.2465616479
      0.5064536076
      0.1453648567
     -0.1563444536
     -0.3192420268
     -0.1822304464
      0.1093089515
     -0.0012279122
     -0.0404199761
      0.1719135234
     -0.1887558238
     -0.1604575570
      0.2094304285
     -0.2515818691
     -0.0394109355
     -0.2411261037
      0.0714317542
     -0.1536107754
     -0.1153669435
      0.1650777313
      0.2903710009
      0.0466736760
     -0.2218182079
     -0.2141129784
      0.1782539772
     -0.1289399781
      0.0849147522
     -0.0312928209
     -0.2192967096
      0.1748399266
      0.2115677049
     -0.2067462386
     -0.1832464374
      0.0342136972
      0.1159020421
      0.3274459019
      0.2127954637
     -0.0355651215
      0.0090249622
      0.0623524949
     -0.0078422252
     -0.1195597614
     -0.0920031817
     -0.2598447462
      0.0403292255
      0.3100105702
      0.3324874462
     -0.0059632738
      0.0674685908
      0.3471364745
     -0.2689926731
      0.0692385930
     -0.0754326913
     -0.0251250177
     -0.1400660398
      0.1382927548
      0.4240797218
     -0.1919940460
      0.1733412300
     -0.1197851347
      0.1053024758
     -0.0492222398
     -0.0576625551
     -0.1247190957
     -0.0581744635
      0.0315497125
     -0.1795808290
     -0.0719972568
      0.0374051117
      0.0020185152
     -0.1989911500
      0.0061900319
     -0.1350758283
      0.2073385072
     -0.1324506988
     -0.3152715223
      0.3105490176
     -0.0886947564
     -0.2007293236
     -0.0017772933
      0.1359780456
      0.1206010420
     -0.1326977923
     -0.1066712383
      0.0111857629
      0.0553197982
     -0.2261507264
     -0.1160523745
     -0.0625078280
      0.0243268546
     -0.1312072487
     -0.2010040828
      0.2383949419
      0.0663659904
     -0.0389325526
      0.1171361734
     -0.0239204510
      0.1435966021
      0.2246997721
     -0.1342990042
     -0.1878823712
      0.1365475524
     -0.0468790539
      0.1139715464
      0.1323768869
     -0.1826835097
     -0.1066045901
      0.1206783968
     -0.4264319768
      0.0053243767
      0.0452918801
      0.1431633383
     -0.1163978186
     -0.0620392968
      0.0938346091
     -0.1811338694
     -0.3617417594
     -0.2917664285
     -0.5410249733
     -0.3163480403
      0.0770792428
      0.2006506464
      0.5534052569
     -0.1411566478
      0.3212959306
      0.1431563961
     -0.3101291750
     -0.2396247618
     -0.2445858901
     -0.1426397157
     -0.0395618279
     -0.2883448361
     -0.4952111184
      0.1984183131
     -0.0139537256
     -0.1828390551
      0.2559878651
      0.0554580253
     -0.2699715694
      0.1583187525
     -0.0542036075
     -0.0999778925
      0.2854651869
     -0.2554104145
     -0.2665546923
      0.1286850452
     -0.2743181300
     -0.1246383717
     -0.4016270065
      0.1300898571
     -0.3860587412
     -0.1176278034
     -0.2494239402
      0.0427152600
     -0.1283137994
     -0.1803286509
      0.3793447847
      0.1953754342
      0.0594382585
      0.2266302656
      0.1354984646
     -0.1227483478
      0.0136506186
     -0.0592931098
      0.0486142703
     -0.3660502387
     -0.1715732588
     -0.1224907613
     -0.0969228008
     -0.2154813319
     -0.1670318912
     -0.0369634758
     -0.0368292433
     -0.1622390053
      0.0579693264
     -0.0564025940
      0.1337464074
     -0.0799941087
     -0.1790718073
     -0.2664817487
     -0.1869281242
     -0.1929788664
     -0.0525195606
     -0.0437921675
     -0.1386481954
     -0.1381067412
      0.1895889994
     -0.1605941637
      0.1856069221
     -0.1996890165
     -0.0907617700
      0.1185450559
     -0.1385699836
     -0.0642049801
      0.0443908908
      0.0984185415
      0.0725944068
      0.2181590187
     -0.1383803006
     -0.0255113831
      0.0160096474
      0.1695386854
     -0.2901869125
      0.2577171232
     -0.0136133213
     -0.1006002303
      0.2902687857
     -0.1518299501
     -0.0043500370
     -0.0361288530
      0.2286964237
     -0.1784835250
      0.0125681826
     -0.0988384540
     -0.2881645861
      0.2539643241
      0.1996939196
      0.0521173077
     -0.1220994297
      0.3312532513
     -0.0012724291
     -0.4515483554
      0.0208112978
      0.2006506203
      0.2157601171
     -0.1044928986
      0.2475740299
     -0.1373045289
      0.1523976683
     -0.0293756843
     -0.1280028012
      0.0161543156
      0.0297820860
     -0.1631185526
     -0.0598329124
     -0.0892508813
     -0.1942790620
     -0.0764415411
      0.1134612303
      0.4714080405
     -0.2371280619
      0.0036265817
     -0.1629126648
     -0.1566388436
      0.1957290475
     -0.0922237725
      0.0163882429
      0.0410894221
      0.2339572238
      0.1227933728
     -0.0790352262
     -0.1907672220
     -0.0275872719
      0.1193563519
      0.1652828791
     -0.1931576007
      0.0643313279
     -0.0415921411
      0.0593127234
      0.1155431669
     -0.1883578559
      0.1220152544
      0.4650054170
      0.2731296099
      0.2872413484
      0.1209216877
     -0.3550822016
      0.2202579689
     -0.0009595296
     -0.0297257359
     -0.0285437480
     -0.1299756854
     -0.0673080438
     -0.3370070380
      0.8134487071
      0.3243920473
      0.0558466427
      0.2515370852
      0.2222976228
     -0.0337303656
      0.0014736096
      0.2385436495
      0.0555852453
      0.1590017323
      0.2492626456
      0.0336852433
     -0.9154524698
     -0.4005236606
     -0.2077825233
      0.2877722790
      0.4215383990
     -0.2498766471
     -0.2553367405
      0.0397409531
     -0.0706494298
     -0.2396355741
      0.0827318208
      0.0289098447
      0.3266348284
     -0.2556993107
      0.0260078200
      0.0975094456
     -0.2210275115
     -0.0918717173
     -0.1379979423
      0.1134737364
      0.0154765159
      0.1420393515
      0.0554970808
      0.1945203180
     -0.0603186718
      0.1170368760
     -0.3541947894
      0.1533457029
      0.3110268051
     -0.0974419043
      0.0699276744
      0.1792296659
      0.2217666479
      0.2458159287
     -0.3428781249
     -0.0371729617
     -0.1029565110
     -0.2986727885
     -0.0850118965
     -0.2514439524
      0.0902579766
     -0.3094475331
      0.1481968045
     -0.3377319760
      0.0372791828
      0.1492262833
     -0.1695323365
     -0.0739628047
     -0.0745896133
     -0.3155240923
     -0.0517000105
      0.2239190587
     -0.2154929380
     -0.2728327536
     -0.2002290206
      0.2781664730
      0.0035954933
      0.1218159093
     -0.2128756286
      0.3477602895
     -0.0185138850
     -0.0012075052
     -0.1351809301
      0.1296104947
     -0.0753643107
     -0.3208971860
     -0.0990147706
     -0.3512045817
      0.1238962526
     -0.1943596482
      0.1353315631
      0.0001782230
     -0.1775294396
      0.1829008543
     -0.2285456860
     -0.1755211827
     -0.1410885272
     -0.2601424842
     -0.1000535890
      0.1071739832
     -0.1509731647
     -0.2692594219
      0.0225342878
     -0.0483363615
     -0.0594110326
      0.2212189483
     -0.2446363754
     -0.0296397274
      0.3502227624
      0.2412616110
      0.2859533728
     -0.1972702696
      0.1797215391
      0.0354025681
      0.0721592021
     -0.0292454432
     -0.2239317577
     -0.2902257843
     -0.1064044004
      0.0542439302
     -0.2350526585
     -0.1300284927
     -0.0742068362
     -0.1388753427
      0.3111304828
      0.0831130042
      0.1284860191
      0.0288773778
     -0.0131610235
     -0.1052835227
     -0.0047499596
     -0.2319948292
      0.2165641572
     -0.2744791124
     -0.0175520200
     -0.1154692069
     -0.0809234103
     -0.0355088326
      0.1300539403
     -0.0423678140
     -0.0724582265
     -0.2725337331
      0.0187795872
     -0.0248212440
      0.0038091858
      0.0670740675
     -0.1693609595
     -0.1193291010
      0.0446493121
     -0.2747879267
      0.1037071457
     -0.0715681019
     -0.1404942924
      0.2362488198
      0.0796486352
     -0.0248569436
     -0.0782107775
     -0.1302037705
     -0.0026198968
      0.0572568711
      0.0247531348
     -0.0946158403
      0.0869312680
     -0.1434625678
     -0.2492484118
      0.2329154993
     -0.3881798435
     -0.1025746452
      0.3754214986
      0.1559071005
     -0.2162299741
     -0.0595673731
     -0.2897274174
      0.1028504205
     -0.1407456997
      0.0220627568
      0.2180958225
      0.1499766875
     -0.0987034607
      0.1066033867
      0.0029463473
      0.2969988904
      0.1829689251
     -0.1038252346
     -0.0513463188
      0.1693718740
     -0.1964177244
      0.1024265494
      0.0453961381
      0.1588429849
      0.1469535075
     -0.0036042648
      0.0194162978
     -0.1419150380
     -0.0535824614
      0.3047979181
     -0.4189391764
      0.3658327661
      0.0597447691
     -0.3707737137
      0.0697475435
      0.2155374420
     -0.0701356366
     -0.1930123435
     -0.2351168870
     -0.1116357201
      0.4744324920
      0.1016555817
     -0.0619737124
     -0.0800200661
      0.3928853705
     -0.1976330673
      0.2488646782
      0.0849178451
      0.0593570404
      0.6189338246
      0.0626194964
     -0.2833806045
     -0.3621766840
     -0.0711596945
      0.0612791794
      0.0580671765
      0.2255822845
     -0.0399400022
      0.1368943826
     -0.0272541202
      0.2256000287
     -0.0576773879
      0.1472986729
      0.0984191777
      0.1906811483
     -0.1713507211
      0.1818435533
     -0.2314973222
     -0.2291818800
     -0.0311677153
      0.0288478072
     -0.1455207984
     -0.1030106503
     -0.3429623822
     -0.0335458790
      0.0927630109
     -0.1685202966
     -0.0823489275
      0.0858773941
      0.1407159503
     -0.1727960000
      0.1862294147
     -0.1415451777
      0.1083844972
      0.1036369690
      0.3210008301
      0.0533224325
     -0.1665834253
     -0.1237914224
      0.1563713590
      0.3586738988
     -0.2091566614
      0.1022221786
     -0.0501913932
     -0.2491628756
     -0.1649883008
     -0.0037812271
      0.0022410163
     -0.0073753323
     -0.1758888290
     -0.3076304342
     -0.0989061475
     -0.0364830651
      0.0758258448
      0.0312685653
      0.2985978021
      0.1711523374
     -0.0739371271
     -0.2829019036
      0.4523412017
      0.3470218542
      0.1566683478
     -0.0281572247
     -0.2704382254
     -0.1810329046
      0.0473678516
     -0.2244492909
      0.0307106824
      0.1367843103
     -0.0690792945
     -0.0880452436
      0.2481353149
      0.1814612544
     -0.1087030120
      0.2995279421
      0.1360943241
      0.0246252833
     -0.1920493259
      0.0312820256
     -0.2766387723
     -0.4568822130
     -0.3950487131
     -0.1725278276
      0.3028569761
      0.0132423866
     -0.1152343673
      0.1073803690
      0.2506969360
     -0.0308669582
     -0.0459642122
      0.1232002919
      0.0581759182
      0.0793486472
     -0.2577907553
     -0.0075463382
     -0.1656003446
     -0.1537593793
      0.0192836258
     -0.2689931604
      0.0498356478
     -0.1733499165
      0.0432078517
      0.0057416176
     -0.1578056238
     -0.1604272491
     -0.2286371161
      0.4018262611
     -0.1050772772
      0.0465113892
      0.1384486318
      0.1774982925
     -0.0260692610
      0.0975047041
     -0.2185785951
      0.2299195984
      0.1415229768
     -0.1911279606
     -0.1446354553
      0.2832024251
      0.0054158168
     -0.1571223600
      0.2411192138
     -0.0121887727
      0.4445414514
     -0.1966874690
     -0.2418753809
     -0.1776431846
      0.0743190308
      0.0753807455
     -0.3287860523
     -0.2821606460
      0.2426799291
     -0.1019186318
      0.0129398684
      0.0738383124
      0.0136323865
     -0.1578397158
     -0.0199936934
     -0.0544234180
      0.0332628606
     -0.1849500773
     -0.0013484339
     -0.0959815242
     -0.1421283225
      0.0805172542
      0.2774909532
      0.3093237781
     -0.0223681235
      0.2106337758
      0.3348280112
     -0.1953102438
      0.1931025769
     -0.2795087041
      0.1401583172
      0.0275966998
     -0.1918646218
      0.0782407837
      0.1670269913
     -0.1893525042
     -0.1100338301
      0.0487688663
      0.0429994523
     -0.0996014610
      0.0823286804
      0.0369607863
      0.0125597434
      0.2042533551
      0.0316721929
     -0.2487520172
      0.1105812287
      0.1671206034
      0.0686991672
     -0.1811157172
     -0.0246126704
     -0.3903055814
      0.3696897032
     -0.0268233039
     -0.2133279343
     -0.1485202231
     -0.2655603082
     -0.2473571799
      0.2943285740
      0.1273096798
      0.5246924330
      0.1398358020
     -0.2402433887
     -0.3353759117
     -0.0148773170
      0.1612241966
     -0.0435917284
      0.0226061713
      0.0001753025
      0.2086076450
     -0.3184780804
      0.1431271658
     -0.1239543122
      0.0797363106
     -0.1812762738
     -0.3521947468
     -0.0251922667
     -0.0836970644
     -0.4012767730
      0.0212014790
     -0.3150375544
     -0.1250928420
      0.1083853817
     -0.1666452803
     -0.1050886155
     -0.1089331757
      0.0874571280
     -0.3282862673
      0.2827246711
     -0.0368022877
      0.1574486509
      0.0109663761
     -0.0817190835
      0.1701861946
      0.4809354189
     -0.2216817867
      0.2372402517
      0.2283274282
     -0.0131783179
     -0.2207312460
      0.1279478856
      0.2125863487
     -0.0549276872
     -0.1761932183
      0.3039726657
      0.0167254100
      0.1625685263
     -0.0124979969
     -0.1856266957
     -0.1286510721
     -0.1914394448
     -0.2917822140
     -0.0567202761
      0.2463510950
     -0.2465532436
     -0.1901281852
     -0.3027025338
      0.3009983686
      0.0912638254
      0.2554603744
      0.2514657026
     -0.1267020027
     -0.2514784365
     -0.0540850966
     -0.1494383894
     -0.2516970839
     -0.3009941187
     -0.3183145698
     -0.1389672423
      0.0943808362
     -0.2450294085
     -0.0273141353
     -0.1966202297
     -0.0817654848
      0.2167901150
      0.0298854979
     -0.2489575859
     -0.3297056817
     -0.3016020470
     -0.2306623869
     -0.2710225068
      0.0576812237
     -0.2962154441
      0.2982135037
     -0.0393560300
      0.0762766587
      0.2460309279
     -0.0604001562
     -0.0507803871
      0.1287958938
      0.0536195946
      0.0530999013
      0.1380153205
      0.1941072058
      0.5219294536
      0.2040260156
      0.1808279912
     -0.0916353607
     -0.0226057824
      0.0635278138
      0.1842080748
     -0.1804403761
     -0.0675392343
     -0.1924071615
      0.0961710919
     -0.0866834087
     -0.1502045062
     -0.1206573123
     -0.2097198769
     -0.0062979894
     -0.1354668433
     -0.0718797524
     -0.0113088377
     -0.1693589063
      0.1203559872
     -0.1520639835
     -0.1375367030
      0.4496982461
     -0.2523797352
     -0.0187513534
     -0.4869043726
     -0.0543896858
      0.2479734772
      0.0043925286
      0.0897826999
     -0.2383434976
      0.1201194345
     -0.4254827388
     -0.0362843337
     -0.1574721821
     -0.2700788653
      0.1345801428
     -0.2317699451
      0.1148386337
      0.0023750798
     -0.2554245039
     -0.2986555207
     -0.2663859774
      0.1021868864
      0.1481161156
     -0.3748371424
     -0.1908903444
     -0.2141339793
      0.1407438379
     -0.3557646549
      0.0572456142
      0.0619593568
     -0.1927297044
      0.1511983579
     -0.2732753900
     -0.2506593892
     -0.1478151403
     -0.0576332338
     -0.3739560019
      0.0859017515
      0.4213663250
      0.1272417419
     -0.2228674904
      0.1537681728
     -0.1522765996
     -0.2609884072
     -0.1203587613
     -0.3406557741
      0.1055980947
     -0.1843048484
      0.3618047780
      0.1860120092
      0.0502721543
     -0.2063847306
     -0.0897937642
     -0.0180735307
     -0.1164216569
      0.1589768006
     -0.3504010074
     -0.3173999187
      0.0740079920
      0.2217158196
      0.0698056434
     -0.1041277733
     -0.1221309058
     -0.2871670811
      0.2568793215
      0.1816226379
      0.0618209163
      0.0817644995
      0.0541715588
      0.2114514476
     -0.0577466109
      0.2007982039
     -0.1501764719
      0.0581842728
     -0.1960896138
     -0.1336415641
     -0.4092546641
      0.2377365307
      0.2339327985
      0.0113778812
     -0.1869723750
      0.0521379973
      0.1548382128
      0.0659008218
      0.0359093019
     -0.3827656444
     -0.1944062276
      0.2040509065
      0.0162072114
      0.1655061942
      0.1386640339
     -0.0153088570
      0.0592733127
     -0.0650335615
      0.1843646306
      0.3259259263
     -0.3030080507
     -0.0933869632
      0.2570903889
      0.3070527814
      0.0303922022
      0.0577770704
      0.1170333932
     -0.1360105292
      0.3223071848
      0.2797005868
     -0.0595557682
     -0.3422414008
      0.2417347107
     -0.0692917855
      0.0254094204
     -0.1548265951
     -0.1744385397
      0.0154204894
     -0.2224065342
     -0.1240731574
     -0.0602062725
      0.1107435927
      0.2642603876
      0.0414428332
     -0.1555939678
     -0.0463889215
     -0.2264653429
      0.0177596716
      0.2794225050
      0.3117818692
      0.0779879888
     -0.0844037044
      0.0698191549
     -0.0722658156
     -0.3832155131
      0.2663000549
      0.2376212978
      0.0197333124
     -0.1856513987
     -0.1240805000
     -0.1790692780
     -0.1732318656
      0.2038255133
     -0.1139092822
     -0.0372571548
     -0.1215017508
      0.0894031709
     -0.1851113160
      0.0263279272
      0.0260798252
      0.0075193621
      0.1058884922
      0.0087611840
     -0.0919478929
      0.1894634911
      0.0620159662
     -0.0947522586
     -0.1118439077
     -0.1988542375
     -0.0343110868
     -0.1016603492
      0.2292804891
     -0.2713247250
      0.0516890666
      0.1720226863
      0.0275028334
     -0.0493169651
      0.0632396334
     -0.3258131157
      0.2354967422
     -0.2658154934
     -0.0128840732
     -0.2405800105
      0.3469647371
     -0.0991785675
     -0.2606520841
     -0.0047740841
      0.0675167610
      0.2461388653
     -0.4252819886
     -0.1342196332
     -0.0071211012
      0.1124208110
      0.0802400153
     -0.1751763034
     -0.3133842794
     -0.2343249528
     -0.1836908597
      0.1548707916
     -0.3782074057
     -0.2692572208
     -0.0984273538
      0.2922492649
     -0.3399968779
     -0.2860700499
     -0.0894749198
      0.0941230018
     -0.1904061943
     -0.1411117570
     -0.2521044546
      0.0546829669
     -0.1493636774
      0.2300629078
      0.3368128615
      0.1225397219
      0.0086821154
     -0.2660305526
     -0.0399390312
      0.2813743478
      0.1580726481
      0.1867205479
     -0.1053468196
     -0.0863419453
      0.3638667799
     -0.2659989926
      0.3796768753
      0.1317939602
     -0.0514115057
      0.0795282188
     -0.3459615876
      0.1128516665
     -0.2797907674
      0.1206030528
     -0.0695431813
      0.1306299489
     -0.0453822128
      0.0753201669
      0.1138718454
      0.0674328748
      0.1272456636
      0.3108487818
     -0.2519125313
     -0.0063956095
     -0.0011042346
      0.3900034490
     -0.1859837532
     -0.3624475077
     -0.2118274457
     -0.0394676658
     -0.0579314935
      0.0487498849
      0.0933291526
     -0.0203967120
     -0.1489958483
      0.0062611471
     -0.2509470469
     -0.2572708027
     -0.1638488425
     -0.0072901857
      0.0787883612
      0.0970779283
      0.0770107453
      0.0881167497
      0.3548562458
      0.3983211740
     -0.0758326495
     -0.0840551557
     -0.1175786558
     -0.2863474630
      0.1554688953
      0.1545760354
      0.0765842856
     -0.2142755042
      0.0936313116
     -0.3492928336
      0.4755174442
      0.1203433876
      0.3672780269
      0.3089189276
      0.1838082200
     -0.1818545454
      0.1670877786
      0.0710366885
      0.1520793973
      0.1492597668
      0.1367107524
     -0.3370135928
     -0.2725795200
     -0.3474691595
     -0.2729139554
      0.0561945397
     -0.0160931491
     -0.2556030879
      0.1345344867
     -0.1905544286
     -0.3129653418
      0.2398681965
     -0.0725173300
      0.2089910206
      0.0467202922
      0.1189901826
      0.0805392901
     -0.0649348025
     -0.1052034508
     -0.2201582206
     -0.0028322292
     -0.1624004882
     -0.1072249180
     -0.0395922464
      0.0796080542
     -0.2135282898
     -0.0610506425
      0.0891397488
     -0.1966183894
     -0.0369697661
      0.0813931801
      0.1033027281
     -0.0401645811
      0.2776428215
     -0.2188040898
     -0.1482345098
      0.1537451288
      0.2021137531
     -0.0653813341
      0.0643768405
      0.3373044460
      0.1836478544
     -0.0539861909
     -0.1689835212
     -0.1608730674
      0.2816563475
     -0.1914906427
     -0.0085291147
     -0.0803582240
      0.1022061818
     -0.0494509469
     -0.1008638429
      0.2022976140
     -0.0348440516
      0.2019937358
     -0.2521605754
      0.0587461447
      0.0717921964
     -0.1052535511
      0.0131596584
     -0.0866695268
     -0.2270503273
     -0.0027960994
     -0.0854346460
      0.2239341065
     -0.1135574825
     -0.1349370304
     -0.0784367878
      0.0989595627
      0.0504241107
     -0.0658323337
     -0.1111675910
      0.0621819214
      0.0619771780
     -0.4026067601
     -0.0062150645
      0.3308829195
      0.0395713865
     -0.0635444571
      0.0366587639
     -0.0964403928
     -0.2320062611
      0.0607751410
     -0.5128283354
     -0.1171636798
     -0.2272994101
     -0.0607716459
      0.2957706299
     -0.0370070680
     -0.3229913688
      0.2153949439
      0.0729222513
      0.1889812783
      0.0827822032
      0.0739175038
      0.3564825968
     -0.2208428226
      0.2493330772
     -0.2834708622
     -0.1359682666
      0.0080764803
     -0.2428850957
      0.3265356420
      0.0385401535
      0.0208361789
      0.1707155156
     -0.1474186253
     -0.0607377697
     -0.1995558197
      0.1497105558
     -0.1360147162
      0.0831864783
      0.0844979503
     -0.0989299839
     -0.0852218079
     -0.1235133243
      0.0116267062
      0.0362137481
     -0.0791813540
      0.2292983636
     -0.2035545069
      0.1346430657
     -0.3300433228
      0.1351149540
      0.2618203924
     -0.0175068677
     -0.0277592339
     -0.2623020396
     -0.1130823912
      0.0609810312
      0.3479707446
      0.2773926235
      0.1594691749
     -0.2919828716
     -0.2372825112
      0.0913794834
      0.2444985584
      0.2228172622
     -0.1069049447
     -0.0321889243
      0.0533515316
      0.1696664408
     -0.2853221334
     -0.2313722517
      0.0614283447
      0.0134098572
     -0.2714284507
      0.0648097719
     -0.2600229810
     -0.1928520533
      0.0380961777
     -0.0409370264
      0.4655560650
      0.1959133044
     -0.2517766932
      0.0425804032
      0.0941537316
     -0.1051019347
      0.0495831709
     -0.0561425679
      0.0646701179
      0.0024144920
     -0.0222291652
      0.1262548251
      0.0201628257
     -0.0252611857
      0.0255269994
      0.0176874258
      0.0268269283
      0.0675520487
     -0.1078144191
     -0.1319219893
      0.0739432848
      0.0082108891
      0.0010740040
     -0.1021120723
      0.3219752748
      0.0135384577
      0.0800760657
      0.1759355055
     -0.2080109614
     -0.1350859253
     -0.1219353790
      0.1952832769
     -0.0602460231
     -0.0698722886
      0.1778771190
     -0.0117746728
     -0.2998665944
      0.1021453106
     -0.1580784727
      0.1766788374
     -0.0709283642
      0.1055503965
      0.1685694739
     -0.0152674561
      0.1471093665
      0.2486184638
      0.2291292169
     -0.0663728268
      0.0203202164
     -0.2241011732
     -0.1756463501
      0.0889745592
     -0.0824077580
      0.0536287298
     -0.2655093283
      0.2712608005
      0.1357007241
     -0.0546536035
     -0.0382349963
      0.1802632387
      0.0063592685
      0.1785958650
     -0.0547463216
     -0.2034014083
     -0.0992988494
      0.0062678587
      0.4799397817
      0.3492304322
      0.1781405109
      0.0794956350
     -0.0705144688
      0.4712713611
      0.1565921919
     -0.1876374029
      0.1422710149
      0.2626639282
     -0.5865325322
      0.0225780706
      0.1222521689
     -0.1371525927
     -0.3312630509
     -0.1872794242
     -0.0829574303
     -0.1224183984
     -0.1451166592
     -0.1447772054
      0.0110589790
     -0.2146357271
      0.0495819882
      0.4090032823
      0.0837803864
     -0.0556482297
     -0.1595530239
     -0.0647759151
      0.2162299585
     -0.3218786072
     -0.1427623863
      0.0032512166
      0.3020453977
     -0.0398379141
      0.1143753948
      0.1558490800
     -0.0181782107
     -0.0167782772
      0.0334054841
     -0.2217593157
      0.1412022967
     -0.1125935993
     -0.1559162487
     -0.0434000815
      0.0601178683
     -0.0323473003
     -0.0187365378
     -0.1970920989
      0.1110363930
     -0.0977501799
      0.0170105188
     -0.2731790687
      0.3210461665
      0.0686697407
     -0.0686215042
      0.1344619294
      0.0064064992
      0.1488208516
      0.2608576873
     -0.3988849068
      0.0325400590
      0.2352104797
     -0.1311708315
     -0.0148746359
      0.0187722412
      0.0160230127
      0.2117380223
     -0.2016717455
      0.0251721377
     -0.1618912191
      0.0792689293
      0.1751206625
     -0.1469589768
      0.1898729870
     -0.0920537304
      0.1986530447
     -0.1280314884
     -0.0488647490
      0.0163944269
     -0.3289876474
     -0.1053958883
     -0.2571496807
     -0.0804967093
     -0.0235851951
     -0.1199656288
     -0.2324659364
     -0.2383871492
     -0.0515311656
     -0.0053138580
      0.1818422204
      0.1630001952
      0.2131172810
     -0.1930683847
      0.2881107185
     -0.2103400958
     -0.0093580108
     -0.0042892853
      0.1238965211
     -0.2511687709
      0.1996640069
      0.2735021251
     -0.2167245837
      0.1109707965
     -0.0949220988
     -0.0447518866
     -0.4447171049
     -0.4193419858
     -0.0463074436
      0.1862831024
     -0.0119935097
      0.0013193586
      0.0738702221
      0.1042298690
      0.1513345715
     -0.0031931898
      0.3258938599
      0.0395997911
     -0.2105013757
      0.2336922647
      0.3600333180
      0.1304964520
     -0.0089375000
      0.0740774254
     -0.1469497207
      0.1483635216
     -0.0997117679
      0.3011936502
      0.2606414182
     -0.0371155443
     -0.1625079544
     -0.1390211939
      0.0428595123
      0.0283718575
     -0.1493703694
     -0.2573036815
     -0.1613436168
     -0.2791111621
     -0.0790399799
     -0.1549833452
     -0.1013608560
     -0.1840556798
      0.3121175849
     -0.2723539219
     -0.2187244271
      0.0289014738
      0.0064147979
     -0.1728952551
      0.1454228385
      0.1019626862
      0.3372032625
     -0.3456944350
      0.1292070183
      0.3264557435
     -0.1967635107
      0.2765779827
      0.0800055073
     -0.1155441719
      0.2219999298
     -0.0210229311
      0.0781918930
     -0.1886893594
      0.0290512922
     -0.1884541089
      0.0025354673
     -0.0763320745
      0.0034140438
     -0.1100677453
      0.0369293991
     -0.2826420576
     -0.1114779356
     -0.1211839740
     -0.1150833996
     -0.1245693393
     -0.0805316857
      0.1828554262
     -0.0419762524
     -0.2885896240
      0.4132220213
     -0.1806783715
     -0.0323022619
     -0.1604741356
      0.2938710234
      0.4382145045
      0.0618041927
      0.0365150708
     -0.5308673858
      0.3461993774
      0.1390891773
      0.1911200084
     -0.1803072984
     -0.0271157459
     -0.4270468972
      0.0894916376
      0.2045487177
      0.2336173185
     -0.1962736269
     -0.1436746644
     -0.1171705451
     -0.1855098842
     -0.0316016399
     -0.1316058820
      0.0907253047
      0.1529422416
      0.2450011188
      0.0682105146
      0.1105481234
      0.2192223491
      0.2765256945
     -0.1871413608
     -0.0024032389
     -0.2929592915
     -0.1040307934
      0.2810522301
      0.1944797605
      0.1591569752
      0.0957909524
     -0.1051114482
      0.0950651212
     -0.1717024820
      0.2172161529
      0.1286846740
      0.3495972422
     -0.0081158428
     -0.1513698760
      0.3328056962
      0.0045964101
     -0.3710805281
     -0.1170520023
      0.2057356834
     -0.0835175143
      0.1280938457
      0.1150016670
     -0.3443067175
     -0.1484971994
     -0.0258864955
      0.0296441026
     -0.2399857119
     -0.0351538576
      0.1455632150
      0.0057677134
      0.1921045579
      0.0048542338
     -0.3921340657
     -0.1685753186
     -0.2186536985
     -0.0319947744
      0.2227102803
      0.0806296773
      0.1579471681
     -0.0883541506
     -0.2021346634
      0.0263239818
     -0.0222917324
     -0.1799114632
      0.1608321316
      0.1037787442
      0.1741305597
      0.0492147843
      0.3559178037
     -0.1681602298
     -0.3162190847
      0.0124560604
     -0.0869248345
      0.1619478054
     -0.0083376731
     -0.1169340826
      0.0525529493
      0.0690058076
     -0.2235705302
      0.0710551361
      0.1838424832
     -0.2584829694
     -0.0997608829
     -0.0406623467
      0.1848883329
      0.1259301493
     -0.0421958046
     -0.0320749245
     -0.0580661110
      0.0989788830
     -0.1385344727
     -0.2412577360
     -0.2242757461
     -0.1905319922
     -0.2204206760
     -0.1917954056
     -0.0183833322
     -0.0918094725
      0.1089410490
      0.0218390735
      0.2149681742
     -0.1378222153
      0.1097630001
     -0.2971875877
      0.2359599218
      0.2931663940
     -0.0383269161
     -0.1680995330
     -0.1143643501
     -0.0736768044
     -0.0489611664
      0.4430156344
     -0.1766350428
     -0.0633770429
      0.2538633005
      0.1450314663
     -0.1476692795
     -0.1766817581
     -0.0361295482
     -0.3917357648
      0.0351532867
     -0.0527645130
      0.0675547494
      0.0269577409
      0.1693851057
      0.1882654599
     -0.1103690084
      0.2648139307
      1.0887658486
     -0.6060277867
     -1.0061726035
      0.2512245656
      0.4422889569
     -0.7501655997
     -0.6884637503
      0.5047010702
     -0.0698417380
     -0.0349260281
      0.2981522323
      1.3467049345
      1.4921232261
     -0.2216132238
      0.4120548357
     -1.1765572162
      0.5996944456
      0.1458898587
     -0.8619198727
      0.5594439613
     -0.3077779325
      0.4760997518
     -0.4334269097
      0.2821693331
     -0.3800903602
      0.4386391622
      0.3359209479
      0.3045557125
     -0.1471090718
      0.6821811866
     -0.2007894887
     -0.6166395819
     -0.5035741125
     -0.1821102242
      0.1876995968
     -0.1388879534
      0.5371365160
     -0.5009686801
      0.5064171824
      0.1833062003
      0.3593985290
     -0.4897517157
     -0.1835086584
     -0.3879619210
      0.4261233654
     -0.0269676421
      0.6272914600
     -0.3287886490
     -0.0676343010
      0.1185515608
     -0.5669188424
      0.4290544572
     -0.5138988751
     -0.3359252544
      0.4969491650
      0.1388261167
      0.3189735407
     -0.0528296262
     -0.2058026757
      0.2775235740
     -0.2171951621
     -0.2702592612
     -0.5417701780
     -0.5923801723
      0.3871340819
      0.0457802708
      0.3040614278
      0.4039410883
      0.2477777161
      0.3725494599
      0.5118546174
     -0.5953488642
      0.3953086007
     -0.7483157330
     -0.5467246691
      0.2822194338
      0.1981833840
     -0.2333631126
      0.2552305408
      0.3285414432
      0.6870035172
      0.4984383036
      0.1847645862
      0.3889332997
     -0.2315174462
     -0.5660162448
     -0.3774598123
      0.6725365738
      0.4044329897
     -0.3492193311
     -0.2990522205
     -0.1614188276
      0.3040529384
     -0.2276388991
      0.3739692273
      0.0057426865
     -0.1119166688
      0.4592242496
     -0.2985108469
     -0.1169873485
     -0.2401998536
      0.0741739995
     -0.1797979967
      0.2681309840
     -0.4210641153
      0.4736231026
      0.7123747778
      0.5633802959
      0.1867696077
     -0.2308429308
     -0.3609989638
      0.1573216569
     -0.5339052563
     -0.5627582888
     -0.4278931437
      0.1880219301
      0.0184126230
     -0.1334800425
      0.2509747037
      0.4215910531
      0.0626150004
     -0.1480029406
     -0.2271352248
     -0.2954839350
     -0.6941552690
     -0.1578260423
      0.0589961677
     -0.2548508846
     -0.5026528196
     -0.0879213307
      0.5314903637
     -0.2134501533
      0.0549239718
      0.1926462594
     -0.3294425921
     -0.2940841112
      0.4842994772
      0.2903243629
     -0.1632020670
     -0.4143487849
     -0.5401724324
     -0.0021220716
     -0.2956118865
     -0.2821272614
     -0.4452665144
      0.2449692136
     -0.3003598160
     -0.5191640596
      0.0837629058
      0.4630336020
     -0.0940441450
     -0.2927544642
      0.4854374722
     -0.6377310498
     -0.5393901914
     -0.1551221254
     -0.1847951197
     -0.4610421255
      0.4000426520
     -0.4789068226
     -0.5311823134
     -0.0184627317
      0.2089452781
      0.2507607998
      0.2282822094
     -0.0388332536
     -0.1859616885
      0.6904320675
     -0.2078646057
      0.2044537727
     -0.1012781521
      0.1146930380
     -0.4797459776
      0.1890022657
     -0.4800181234
      0.4296992589
      0.1196593630
     -0.2700787105
     -0.5505728401
      0.0623265243
      0.5364017606
     -0.0163395079
      0.5731572720
      0.5197145792
      0.5888082007
     -0.0695523693
     -0.4671607540
      0.3701051100
      0.2500106825
      0.6181892306
     -0.2282738214
     -0.1881608896
      0.4617540759
     -0.0444631939
     -0.5604124349
     -0.6179061087
      0.3425898184
     -0.5977522915
      0.2554991430
      0.4488830375
     -0.3487038109
     -0.3427553608
      0.5351401575
     -0.3467622993
     -0.2646858955
      0.4254822185
      0.0444122478
      0.0574317049
      0.3666980493
     -0.3566284861
      0.1350573309
      0.5941870713
     -0.0392670026
     -0.0357887237
      0.3756475235
     -0.4884105174
      0.1917585902
     -0.3067750088
     -0.4508542731
      0.4993188129
      0.8292341205
     -0.0280474086
     -0.3185577854
     -0.2389112093
      0.2131636489
      0.3440070012
      0.6611724468
     -0.1168352920
      0.5354615333
     -0.1766247590
     -0.5615501035
      0.6300237637
     -0.7723392366
     -0.0960722783
      0.1247858421
     -0.7113067856
     -0.3043739947
     -0.3879570004
     -0.2442571938
      0.3653457304
     -0.0390658863
     -0.6435189795
     -0.3166393043
      0.4151518361
      0.3923102852
      0.5435943666
     -0.1064542504
      0.2894104314
     -0.1781110520
      0.5739726135
     -0.4252366106
     -0.5482359557
     -0.3480275456
      0.4283862027
      0.4232240142
      0.4707642749
     -0.2927345354
     -0.5314226458
      0.4911582346
      0.2616872006
      0.1931018393
     -0.5863182433
     -0.6090880775
      0.1562455841
     -0.3645893673
     -0.3519850710
     -0.3895325451
      0.6748258086
     -0.5779676994
      0.3136927881
      0.6585151382
     -0.1710498605
     -0.0949797816
     -0.4082140520
      0.2411063675
      0.1030872436
      0.5676964933
     -0.4198707430
      0.0252021652
      0.4480737205
     -0.6585160681
      0.4000267757
     -0.3462782277
     -0.0903379599
      0.1973203904
      0.4613781984
      0.5972366448
     -0.6481063019
      0.1297337591
      0.3388161684
      0.0504619955
      0.3808079284
     -0.3807422433
     -0.0707228176
     -0.5733749866
     -0.1772810961
      0.0549285591
      0.5581121008
     -0.2239828076
     -0.3003267202
      0.3266271914
      0.5633453158
      0.4519643790
      0.7518596394
      0.1533959741
     -0.2051125483
      0.2964798806
     -0.5180530662
     -0.3867009805
      0.3375335309
      0.3295637932
     -0.0992250453
      0.3632125250
     -0.0845348580
     -0.0695243803
      0.1487635626
      0.0244671660
      0.3494872296
     -0.2569332058
      0.2845815644
     -0.3774726809
     -0.1892992854
     -0.4461631140
      0.2249106030
      0.3771682465
      0.4271258893
      0.3710020696
      0.2812148124
     -0.5869010790
     -0.3419322417
      0.3147705559
      0.4846146028
     -0.4070144241
     -0.8067436868
     -0.2669358488
      0.3198900230
      0.5536495584
      0.0831054310
      0.6533230002
      0.6436532316
     -0.2669378281
     -0.2390940068
      0.5007550363
      0.1969949425
     -0.1781144854
     -0.0945791211
      0.0868641994
     -0.1920801030
      0.4019427850
      0.4806167486
     -0.6149383826
      0.0683397362
      0.3899395119
     -0.3416919987
      0.5217481525
      0.6440120642
      0.5519882022
      0.4509645864
      0.2404347279
      0.1953630412
     -0.6068277877
      0.4553882891
      0.0645878904
     -0.3516697705
      0.3719900671
     -0.5172266922
      0.3788454125
      0.6278152455
     -0.5619028217
      0.1547282648
     -0.1519414831
     -0.1920224452
      0.1680667114
     -0.2670744408
      0.0491306855
      0.2763372228
      0.2230056304
     -0.3392932806
      0.2700672742
      0.2390043137
      0.4041719004
     -0.5392893240
     -0.2483448720
     -0.5900620421
      0.4380446350
     -0.4649728933
      0.2206740008
     -0.5816692215
     -0.2301678328
     -0.2904951660
      0.0550061839
     -0.4910948379
     -0.6900192117
     -0.1671010081
     -0.4436508770
     -0.4145660124
      0.7352143749
      0.4155730090
      0.5896379955
      0.4188100125
      0.1485318903
     -0.3385589921
     -0.1719258565
     -0.3094280420
      0.6734701733
      0.5744789529
      0.3869792385
     -0.1256961402
     -0.3496583034
      0.5162217246
     -0.0877707854
     -0.5123200869
     -0.1799394297
      0.6394890018
     -0.4416331394
     -0.0853113663
      0.1157969610
     -0.7284475833
     -0.4327338475
     -1.2680993361
      0.7931612906
     -0.7816555829
      1.5828638173
     -0.1102886923
     -1.4678156101
      0.8433753984
      0.9776188784
      0.2359477198
     -1.0842885040
     -1.2637208478
      1.5189549513
      0.3646428918
     -0.2409734047
     -0.0212710433
      1.1872472719
     -1.3174836348
     -1.3931313550
      1.0675671177
      0.9382637942
      0.0471393691
     -0.0331423030
      0.0041701835
     -0.0000305024
      0.0464179957
      0.0261005074
     -0.0115405354
     -0.0931681333
     -0.0509278917
      0.0146513182
      0.0344367466
      0.0984086774
      0.0435759785
      0.0430193359
     -0.0374014736
      0.0099794479
     -0.0139346140
     -0.0187721898
     -0.0271530118
      0.0019405380
      0.0493707134
