      0.0617174826
      0.2771853806
      0.1519943520
      0.2601286773
      0.0738311583
     -0.3700081122
     -0.2651049215
      0.1224956517
     -0.1150437267
     -0.2597309079
      0.2049000455
      0.1988772153
      0.2026856604
      0.0698525635
     -0.0706274043
      0.0737393780
     -0.2209756660
      0.0145800515
     -0.2999213018
     -0.0056376329
     -0.1756377054
      0.1764525023
      0.2292973996
      0.0934371934
     -0.1026621982
      0.1236409195
     -0.3355942368
     -0.0989044263
     -0.2454156258
      0.4825748353
     -0.2915595057
     -0.2113126286
     -0.0722683004
     -0.1000248499
      0.1813574284
      0.0926739850
     -0.1360480203
      0.0944498924
      0.1454982772
      0.2442306639
     -0.2224913182
     -0.1024583666
      0.1805462570
     -0.0029114010
      0.2087086825
     -0.0710236854
     -0.0799557754
      0.0054700535
     -0.0991652362
     -0.0015096993
      0.1466868332
      0.1102125770
     -0.2120498604
     -0.0777747202
     -0.0640143292
      0.4139091195
      0.1641665432
     -0.0570543866
     -0.0392555979
      0.0747631651
      0.2112275790
      0.3502254438
     -0.0592713176
      0.0609298962
      0.2436334996
     -0.0160149267
     -0.0502671199
      0.0175841460
     -0.0493366957
      0.2587167404
      0.0797315933
     -0.1019766391
      0.0187559787
     -0.1222872247
     -0.0811795294
      0.1118699241
      0.2758887429
     -0.1314998125
      0.1543392509
     -0.0056558247
      0.0609906148
     -0.0642344116
     -0.4006028733
     -0.2559334587
     -0.2837084030
      0.3638974513
     -0.0826719815
      0.0089149912
     -0.3107325496
      0.0414426913
     -0.2823650542
     -0.3169300279
     -0.0263803153
      0.0617110676
      0.1786703662
     -0.2606561101
      0.3533731021
      0.3064475242
     -0.0704096173
      0.0525767898
      0.3235713378
      0.3723484061
     -0.3388375802
      0.4128991242
      0.0611496929
     -0.7820001386
      0.0470859643
      0.0030476613
     -0.3418914188
      0.0456397627
     -0.4042264462
      0.3348290196
     -0.1691375915
      0.0571571215
     -0.1128635743
     -0.0398268546
      0.7161962490
      0.2926323418
      0.3066293754
      0.2055766326
     -0.2081453062
      0.4230144299
      0.1877050600
     -0.4844761490
      0.2029185185
     -0.1572877005
      0.4299372188
     -0.2375952498
     -0.0745020109
     -0.5785716485
      0.1941079366
      0.0603428905
      0.0402731206
      0.1399894313
      0.2515962198
      0.2587865724
     -0.1342500609
      0.2415636387
     -0.0900055104
      0.4595503008
     -0.2363052788
     -0.2067143190
      0.1657154595
     -0.0130407441
      0.0627008373
      0.1601348190
     -0.0584543397
      0.2082605791
     -0.2636010508
     -0.1132159674
     -0.1088983094
     -0.2208958686
     -0.0117650792
      0.1832878936
      0.3591967918
      0.2144883601
      0.0401567492
     -0.0279676514
      0.2800210325
     -0.2051992312
      0.0783242627
      0.0591211489
     -0.1059536572
      0.1203192060
     -0.2868367134
     -0.0122073174
     -0.2553367439
      0.0719346733
      0.0086243771
      0.4200191695
      0.2281002331
     -0.1564149909
     -0.1248302195
     -0.2525766182
     -0.2571086323
      0.0506479983
      0.1398089286
      0.0549841209
     -0.1517197420
      0.0218200678
      0.2356698179
     -0.0439953652
      0.2108777533
      0.1490589347
      0.1173585639
      0.0642853330
     -0.0749301141
      0.1222195002
      0.2098828625
     -0.0259252868
     -0.0700978922
      0.1182784930
      0.1589510945
      0.0249358976
     -0.2260282888
      0.2738371663
     -0.0296789298
     -0.0365074660
      0.3632684563
     -0.0759906781
      0.1433245869
      0.2851266523
      1.0391524965
      0.0184246483
      0.7003253874
      0.4450853064
     -0.2637116315
     -0.1504467111
      0.4869881584
     -0.0900351800
     -0.3593821472
     -0.4344292577
     -1.0750737204
      0.1916017207
     -0.2261744874
      0.1786131214
     -0.0750808667
      0.4655124398
      0.1739221365
     -0.0268318757
      0.2280253909
     -0.0413572017
     -0.4663220872
      0.0097446454
      0.0867456283
     -0.0164010416
      0.2395056798
     -0.0257036198
     -0.0114372888
      0.2832469553
      0.3075725582
      0.5650032994
     -0.1460953087
     -0.1487402892
     -0.2441589044
     -0.2277202850
     -0.0211661273
     -0.0851567600
      0.0011630286
     -0.1763716948
      0.1041985759
      0.2798013134
      0.5252708654
      0.3536594546
     -0.0809496734
     -0.4307926751
      0.0004804038
     -0.4039577190
     -0.5467327590
      0.3690336216
      0.1047020906
      0.0672079966
     -0.3233912553
     -0.1253739602
      0.1834910595
      0.0554423375
     -0.2417969449
      0.4193607114
     -0.3300486675
     -0.1703808386
     -0.2125969711
      0.3388509643
     -0.0800674169
      0.2250695391
     -0.1436008103
     -0.0943125290
     -0.0388355896
      0.1466833057
     -0.1007999291
      0.0112109878
     -0.0432783302
     -0.0716730392
     -0.3070709675
     -0.2471965718
     -0.2215558520
      0.0590123500
      0.2598348494
      0.2778546745
      0.4279715889
     -0.3317103323
     -0.1582740090
      0.5946463965
     -0.1063504612
     -0.2750435550
     -0.1160271347
      0.4366689969
      0.1823450838
      0.0211218972
     -0.1957002911
     -0.0216592885
     -0.1572908229
     -0.2275897047
     -0.0294156249
     -0.2375685884
     -0.4847204980
      0.3939177083
     -0.1074919816
     -0.0492841787
      0.2212218862
     -0.0171439554
     -0.0952789184
      0.0883076950
      0.4289048603
      0.0507242845
      0.0192778587
      0.1024089577
     -0.2840852153
     -0.1720352933
     -0.0517196351
     -0.1917018138
     -0.1788678590
      0.4266576920
      0.1223275675
      0.0939708559
      0.1992487050
     -0.3448065930
      0.3023418505
     -0.2779812900
     -0.1931734144
      0.1892517447
      0.0033077253
      0.1058574169
     -0.3001733473
     -0.2817788791
      0.1469251476
     -0.0356118209
      0.1555204509
     -0.0513919014
      0.0927662678
     -0.0507288699
      0.0074934762
      0.2580678937
     -0.1266763517
     -0.0341505309
     -0.0411345225
     -0.0008292027
     -0.1848642106
      0.0657591891
     -0.0957971715
      0.0157298329
      0.2652576205
     -0.0803454258
      0.4706453405
     -0.2835043045
     -0.0448003008
      0.1828895465
     -0.3976490345
     -0.1725191657
      0.0539488683
     -0.1777051436
     -0.3190693369
      0.1994125083
      0.0215651077
      0.3519825863
     -0.0058771685
     -0.2400524489
      0.1236020248
     -0.1956378887
      0.0263825285
      0.1366093757
     -0.0539638979
     -0.2966198973
      0.0536425660
     -0.0823251243
      0.0996846191
      0.0346275421
      0.0225901363
     -0.1052685180
     -0.2623105766
      0.2079051542
     -0.0524449375
      0.3091113883
      0.1480296740
     -0.0283312114
     -0.1597114124
     -0.0747875367
     -0.1207048491
      0.0421948672
     -0.1016966865
      0.0638350530
      0.2412288125
      0.8939977616
     -0.5659208616
      0.0687697045
      0.0365999570
      0.5077875132
     -0.3981875203
     -0.2750351598
     -0.0477430119
     -0.0246965657
     -0.4511770050
     -0.3430437180
      0.1232559644
     -0.2356688015
      0.1581214788
      0.0535958591
     -0.3641257713
     -0.2133422341
      0.7163568930
      0.2101188250
     -0.2374180761
     -0.1861299663
      0.2163151525
      0.1080506339
      0.0572175067
      0.5103680674
     -0.4123115490
     -0.0427344118
     -0.2825870397
      0.3983915939
     -0.5321034670
     -0.2113255517
     -0.0077087890
      0.3782556938
      0.1113211516
     -0.0565116750
      0.4465171667
     -0.0645400671
     -0.1398586945
     -0.1456613837
     -0.3104189482
      0.2201138967
     -0.1685380333
      0.4545169443
     -0.2785693584
      0.1004264452
     -0.0062251899
     -0.2528792566
      0.1497110852
      0.3439281556
      0.1105155748
      0.0470876793
     -0.1710852209
      0.1176968848
     -0.3152851814
     -0.1296393506
     -0.1393508492
      0.0219187864
      0.1606070365
      0.0482595885
     -0.1857785924
      0.0072395763
      0.0444541495
     -0.1260574172
      0.2322983977
     -0.0528786304
      0.1924373003
      0.1967203845
     -0.2310139981
     -0.1018550389
      0.0862951660
      0.2020795248
      0.1402758095
     -0.0764818557
      0.0545047044
     -0.0542125452
      0.1292479327
     -0.3941907436
     -0.3567172343
     -0.0156286903
     -0.1317824106
     -0.2232132374
     -0.1593239532
     -0.0888527059
      0.0463210673
      0.3966551191
      0.0535065588
      0.4029754484
      0.0216902663
      0.3648203451
      0.2998689888
     -0.0699840179
      0.0689689030
     -0.1017944630
     -0.1870093031
      0.5655327886
     -0.0823838772
     -0.5134159877
      0.0157772004
     -0.1966190001
     -0.2724979741
     -0.2438655807
      0.1671337729
     -0.3221971805
      0.1039334606
     -0.1396713883
      0.0085078229
      0.2524357626
     -0.0538190346
      0.2439525411
     -0.0606415194
      0.2404729408
     -0.3320481548
      0.1844933335
      0.3078376103
      0.1953867597
     -0.3178488024
      0.2297463203
      0.1966926894
      0.0999501791
      0.1161160732
     -0.2528833094
     -0.6116905631
     -0.6202502397
     -0.3111116289
      0.1356973503
      0.5203471126
      0.0471796834
     -0.1799293860
      0.0083398781
      0.2829420112
     -0.2987128273
     -0.1172745617
      0.1968370071
      0.1568654011
      0.0108509597
     -0.1803888776
     -0.2065907271
     -0.1307350959
      0.1410401659
      0.5196452658
     -0.2575126488
      0.1508808280
      0.2164335228
      0.2091131537
     -0.1511093483
     -0.0375920871
      0.4799648679
      0.0289926934
     -0.1783389779
     -0.1043733500
     -0.3259987173
     -0.3151839559
     -0.3039534321
      0.2617233926
     -0.1193237856
     -0.4046995314
     -0.4849739801
     -0.7027650396
     -0.1379629594
      0.2071883763
      0.0012080783
     -0.4484953921
     -0.2948175137
      0.1852967719
     -0.2067516527
      0.1363017582
      0.4031465622
      0.3079475285
      0.0740237888
     -0.0313292272
     -0.4492286616
     -0.4640984850
      0.3392947125
      0.1997481608
     -0.1206762631
     -0.0512278425
      0.0624045752
     -0.1285991354
     -0.0236388980
      0.4619018912
      0.1549707611
     -0.1697028108
      0.4550161661
     -0.1054268221
     -0.5167179733
      0.3059477716
     -0.2391116758
      0.2153386241
     -0.0822058608
      0.5520219979
      0.2931348203
      0.3563961823
     -0.3896969149
     -0.0965599946
      0.3023034927
      0.0823335059
     -0.0717386920
      0.3331061733
      0.0738584084
     -0.0948096105
      0.1042225116
     -0.0549930895
      0.0486563597
     -0.0047427420
     -0.0886156052
      0.0703635529
      0.1635511329
     -0.1578522321
      0.1385163721
      0.1035068857
     -0.0385735409
     -0.2246799790
      0.0026383258
      0.2371477964
     -0.0017642601
     -0.0070661587
      0.1982697698
     -0.0513584710
      0.1228035861
     -0.2353529485
     -1.5505233717
      0.8063902864
      0.5134896522
     -0.3606047299
      0.0664239609
      0.5560494149
      0.6191553435
     -0.6134748409
      0.9229867192
      0.3790136881
     -0.2882249803
      0.0059750074
     -0.3096043576
     -0.2460484563
     -0.3327426457
      0.2754788546
     -0.0917953313
     -0.4944894514
     -0.0423043372
      0.2768156414
      0.1632885156
     -0.3779811955
     -0.4758280565
      0.0858964100
      0.0909225040
     -0.2078919632
     -0.3418131212
     -0.0049194767
     -0.2113999899
     -0.4423569294
      0.4591241474
     -0.0376823920
     -0.0282542320
     -0.2274424197
      0.1133216171
     -0.1059647953
     -0.3953270021
      0.0707167926
      0.1697977994
      0.0673269665
     -0.0275679900
     -0.2040086223
      0.1763083735
     -0.2638895764
     -0.1831416736
     -0.0043194585
      0.1291118743
      0.1124557434
     -0.1587694303
     -0.2862215228
      0.1877744866
     -0.1388358313
     -0.1578523673
     -0.0287555859
     -0.1466624832
     -0.0960460331
     -0.3166865727
     -0.2423995449
     -0.0980056405
     -0.3187331086
      0.0725262023
     -0.2288169178
     -0.2822267383
      0.0811984760
      0.4221909860
     -0.1677275711
      0.0990539836
     -0.1319391677
     -0.2474851064
     -0.0478855388
     -0.3228511375
     -0.0709063390
     -0.2522565991
     -0.2324309715
     -0.0336190412
     -0.2131958125
     -0.0851035324
     -0.0309444392
     -0.0541611622
     -0.0274098900
      0.2008341801
     -0.3338607916
     -0.4683209451
     -0.0995665855
     -0.1684632742
      0.3911254335
     -0.3491739050
     -0.3121631453
      0.2940834620
     -0.1036107008
      0.2440951625
     -0.2524951370
     -0.0619230065
     -0.3535673574
      0.0710618957
     -0.1326242437
     -0.0994830172
     -0.1618157796
     -0.0233194646
     -0.0178296961
     -0.1293121150
     -0.0386910635
     -0.1328878348
      0.0893407753
     -0.0751652780
      0.1403903175
      0.2035520656
     -0.1354050744
     -0.2111659252
     -0.0113789173
      0.1229417032
     -0.2728511626
      0.2016129823
      0.0021990382
      0.3273344478
      0.0986052853
     -0.1928180725
     -0.2157058789
      0.1138067270
     -0.4999066259
     -0.0335671091
      0.4529193754
      0.2785189976
      0.1684922810
     -0.2093666183
      0.1980666992
      0.0799100243
      0.0781522125
      0.0360185739
      0.3595845654
     -0.0312244795
      0.0568963682
     -0.0990495393
      0.2439847759
     -0.2382722306
      0.1174463755
      0.2547663877
     -0.2283857412
     -0.0581065524
     -0.0672602444
     -0.1856745331
      0.1348146490
     -0.3028436805
     -0.1593602770
      0.5013855139
     -0.1487450378
     -0.2475144957
     -0.1368852348
     -0.0486358019
     -0.3277840147
      0.2075075566
     -0.2269759513
      0.0912152863
      0.2525676970
     -0.1888765101
     -0.2869717163
      0.0963502957
      0.1782414465
     -0.0577545851
     -0.2147097941
      0.9400102685
     -0.1854516843
      0.0706425551
     -0.1671976389
      1.0227250648
     -0.6446965971
      0.3784092802
      0.2402979452
     -0.4360855193
     -1.1801409960
     -0.1016014500
      0.2415949157
     -0.0208096372
     -0.0200741610
     -0.3998739087
     -0.0981900266
     -0.5644679528
      0.7942437182
      0.1779949018
      0.5808939024
      0.0392720203
      0.0334147484
      0.0288935015
      0.1342620908
     -0.2717396493
      0.2890819845
     -0.0309996271
     -0.0143089172
      0.2998631861
      0.0905998658
     -0.1620173277
      0.1771578470
     -0.1094380001
     -0.1225048802
     -0.0556530105
     -0.0622010178
      0.6739413744
     -0.0360989606
     -0.4181519541
     -0.1611004246
      0.3006916367
     -0.1470445798
      0.1495224548
      0.1711375320
     -0.0693956101
      0.0922132875
     -0.0401189885
     -0.2123032174
     -0.0393116238
      0.0341248946
     -0.1570834386
      0.4526512885
      0.1103946297
     -0.1204414557
      0.1910055068
     -0.3072029541
     -0.2256260681
     -0.0708941516
      0.0783948018
     -0.4000492254
      0.4901019769
      0.3242993338
      0.0699177668
     -0.4764935773
     -0.1708885855
     -0.4557996489
      0.2193611037
      0.1553737544
      0.2153382276
     -0.1569478606
      0.2098999779
     -0.3144535811
     -0.2987527246
      0.1294389387
     -0.1193542908
     -0.5135235181
     -0.2392444092
      0.0843619686
     -0.0137111402
      0.2065992739
     -0.1991450441
      0.5289801363
     -0.3658648115
      0.1831987939
      0.1090849872
     -0.1185534856
     -0.2374903107
     -0.0603281431
      0.1091014127
     -0.0645473363
      0.0595418439
     -0.0611288888
     -0.0987012650
      0.2677489305
     -0.1335765292
      0.2476321136
      0.3083954235
     -0.1406865580
     -0.2283196844
      0.3019916613
      0.2599422750
     -0.6033423597
     -0.4032994171
      0.0460628341
     -0.0836669997
      0.0383314405
      0.1281630762
     -0.1168419822
     -0.1272417275
     -0.6287494188
     -0.0270216939
      0.2850600274
      0.0276848242
      0.0358427359
     -0.2023498618
     -0.4911063360
     -0.2885886187
     -0.2165907647
     -0.2066573460
      0.1973343804
      0.2000107846
      0.2144783893
      0.1720965740
     -0.0832316660
     -0.0397396284
      0.1719536932
     -0.2175936396
     -0.0589907582
      0.2940182152
     -0.2880473897
     -0.2856321847
     -0.2689239844
      0.0177460634
      0.3230976892
     -0.2260552234
      0.2831287821
     -0.0721550818
      0.1882991230
      0.0835862193
      0.0639783148
     -0.3349090481
     -0.2504275889
     -0.1371099494
     -0.1105664572
      0.2846602988
     -0.0631391034
      0.1880499497
      0.1020646020
      0.0091230035
      0.5996111826
      0.2000077565
     -0.8162308568
     -0.0096303729
      0.3104711475
      0.1295439051
     -0.5647629367
     -0.3269061985
     -0.6006790542
     -0.0255108148
      0.1382510439
     -0.1802933725
      0.4274407654
      0.0386813064
     -0.1507799719
      0.1628877812
     -0.1191420165
      0.0304252340
      0.1070779298
     -0.2952399729
     -0.2387498760
      0.2438923633
     -0.0443998058
     -0.0620601599
      0.4872476292
      0.3698590353
     -0.0949489311
     -0.0633215044
     -0.2224439710
      0.2467518354
      0.3852361475
     -0.3209044186
     -0.0706580133
     -0.2045536615
     -0.1814020799
     -0.4084026475
      0.1433079875
     -0.2584570635
     -0.1554452973
     -0.1446202203
      0.1115821290
      0.0321572055
     -0.0965966024
      0.2558730057
     -0.2062713545
      0.0163577339
      0.1479155031
      0.0500993233
      0.0994291593
     -0.1605901946
      0.1396636143
     -0.3458638596
     -0.1576208917
      0.3642555100
      0.6748014832
     -0.2833637680
      0.2129865828
      0.0868354526
     -0.2485544945
     -0.0956868174
     -0.1114525077
     -0.1832732743
     -0.8417694956
      0.3401749786
     -0.4052468028
      0.1474602591
     -0.4432209063
      0.4570971884
     -0.7361637354
      0.4895972402
      0.1092675893
     -0.1878346881
      0.0086769470
     -0.1867198753
      0.0881375644
      0.2250322959
     -0.0716079050
     -0.1214282142
      0.0710189197
     -0.2011678492
     -0.0837515934
      0.0587770290
      0.1399196938
      0.3675348848
      0.2405540793
      0.0053486197
     -0.0915180694
      0.0016702891
     -0.1895397380
     -0.1883346006
      0.5060023204
     -0.2398936823
     -0.2416202973
      0.1835775293
     -0.2543835695
     -0.0678597380
      0.2870357946
      0.0641026223
      0.0351297678
      0.0641906623
     -0.1215079995
     -0.1102162064
     -0.4526268370
      0.2457956958
      0.1631927125
     -0.1197321614
     -0.4170901003
     -0.3632272690
      0.0532348767
      0.1476954217
      0.0255731919
     -0.3241660620
      0.1854299381
     -0.1844462628
     -0.4727824560
     -0.3943409048
     -0.2429334688
     -0.1450141495
     -0.2798630802
      0.0144442459
     -0.3282397815
      0.0413859491
     -0.1310418985
      0.1461492309
      0.1365695332
      0.3427388826
      0.3190494145
      0.3565342956
     -0.3652688750
      0.3377961769
     -0.4237361198
      0.1305205348
      0.3279071556
     -0.0572546311
      0.1022898450
     -0.1255300410
     -0.1742547855
     -0.1791730803
     -0.1596102184
      0.3781550387
     -0.2545519053
     -0.2441587258
      0.4486708559
      0.2217089826
     -0.1477617569
      0.4619214447
     -0.4315773673
     -0.3294195781
      0.1814911903
     -0.0506637206
      0.1308793586
      0.4358590280
      0.2435950091
     -0.0463796853
     -0.4044536372
      0.0001427113
      0.5270006804
     -0.5265955375
      0.3726225783
     -0.1193519849
      0.0225527388
      0.4027680757
      0.0566819079
     -0.4419487000
      0.0652799803
      0.3375468603
      0.3114079338
     -0.1514895579
      0.7352310290
     -0.1328298395
      0.1580683076
     -0.2127304847
      0.1633320215
     -0.2402472834
      0.0893307856
      0.2641036630
      0.0056172198
      0.1733611232
     -0.0420490511
     -0.2287465319
      0.0762988361
     -0.3647631644
      0.1319101244
     -0.1782914388
      0.0886749466
      0.1394527202
     -0.2158185427
      0.1893340615
      0.2803280111
      0.0425085006
      0.3978659368
      0.1296078958
     -0.0849743662
     -0.1578626032
      0.1861649190
      0.0522617475
      0.2535735991
     -0.2539404465
     -0.4014820551
     -0.0625089068
      0.2219485319
     -0.4790630928
     -0.1196716505
      0.2157726444
     -0.0056096954
      0.1191090342
      0.1168515167
      0.1119487545
      0.0801392264
      0.2571817208
     -0.0693056790
     -0.0448254982
      0.0501334535
     -0.0934332569
     -0.6100406553
     -0.0423404467
     -0.2498054663
      0.1929977553
      0.3842125595
      0.0615438629
      0.0259998253
      0.1435033896
     -0.4708416912
     -0.2798554731
      0.3972059648
      0.2450063431
      0.2206402095
     -0.2714982928
     -0.2955497202
     -0.0011946598
     -0.3606657138
     -0.1959322108
      0.0628638736
     -0.0791280061
     -0.1653172747
     -0.1869282288
     -0.1428986370
     -0.2552563623
     -0.1406299733
      0.0630152184
      0.1848744709
     -0.2006597459
     -0.2622921295
      0.2348870882
      0.1393351308
     -0.1769314299
     -0.2467209008
     -0.0411624946
     -0.0965711592
      0.1673779745
     -0.3276738430
     -0.0355823138
     -0.1391765786
     -0.0810147306
     -0.1493989837
     -0.1883823439
      0.0900461675
      0.3028919232
      0.1392482891
     -0.0586587559
     -0.3892289296
     -0.3030074842
      0.3927585247
      0.3408130434
      0.1763040139
      0.1166942492
      0.0978076551
     -0.1792265089
     -0.2481141300
      0.2955042707
      0.0548035545
      0.1975447612
     -0.1482354797
     -0.5119239612
     -0.2164882532
      0.1203089594
      0.0689547943
     -0.0653415530
      0.5173308196
      0.0419494486
      0.0908557504
     -0.0467685252
      0.0053789329
      0.0740303336
      0.4496566033
     -0.2316987909
     -0.4835327582
     -0.0686161697
      0.1217642637
     -0.2871818103
     -0.2386313826
      0.2025652442
      0.1931597410
     -0.1462536944
     -0.2413506146
     -0.0333807814
      0.0943535501
      0.0806497372
     -0.0418575021
      0.2228051385
      0.1064447792
     -0.0558496840
     -0.1359109575
     -0.0289321044
      0.2934550424
     -0.2280343347
     -0.3115572440
     -0.0872360164
     -0.0954509316
     -0.2823490810
     -0.2563332422
      0.2768319579
     -0.1409873618
      0.1890191980
     -0.2333657306
     -0.2422367009
      0.1862264580
     -0.1318678506
     -0.1240924286
     -0.1859834638
      0.0220021949
      0.0802403432
      0.2372863290
      0.1510138153
     -0.0384673878
      0.5369822361
      0.0577009341
     -0.0018589073
      0.2545375976
     -0.0818382836
     -0.2206959813
      0.2192766219
      0.0343073814
     -0.1976402382
      0.0980102768
      0.3488379550
      0.0504278431
      0.1986243162
      0.4574933841
     -0.1613640745
     -0.1456324736
      0.1080347441
     -0.1833107270
     -0.0098082192
      0.3552563350
      0.0068990818
     -0.0160553767
     -0.3549126709
     -0.2403491478
      0.0462863006
      0.1443899854
     -0.1714147856
      0.0361574726
     -0.3730101448
      0.1091504209
     -0.0491987132
      0.2263739982
      0.0393252104
     -0.0229214650
      0.4429704013
      0.1648757934
     -0.1812460721
     -0.1315404245
      0.2103792082
      0.0270999995
      0.2772242262
     -0.0429068039
      0.2237266097
      0.2435728759
      0.0696352161
      0.0392159476
     -0.0972658059
     -0.1964642966
      0.0831747467
     -0.1616441700
     -0.0665499968
      0.1534336812
      0.1859277546
      0.0936031227
     -0.3039356413
     -0.1010360583
     -0.3285550579
     -0.0290217273
      0.1131645311
      0.1113831048
      0.5814698060
      0.2666748412
     -0.0586365436
     -0.1903797985
      0.3788258441
     -0.2176820025
     -0.0158171897
     -0.1454649120
      0.0511436469
     -0.2259031765
      0.0116562773
     -0.1772990413
      0.3240043954
      0.1205489898
     -0.2910553405
     -0.1698465854
     -0.0647949888
     -0.3259870222
     -0.0966528609
      0.0541529003
     -0.1534621649
      0.1203244943
     -0.2732612638
     -0.2714695940
     -0.3173162878
     -0.1251576226
      0.1248076170
      0.0587148686
      0.2408171654
      0.1507824725
     -0.2186855445
      0.1716043144
     -0.1036811818
      0.1155974486
     -0.3310840839
     -0.0181893170
      0.1406193769
      0.0541046585
     -0.4522087060
      0.0237508471
      0.3347672096
     -0.1459598381
     -0.1393365124
     -0.0176399868
      0.0777039794
      0.3979218829
      0.0615434898
     -0.0895441953
     -0.0172676148
      0.2633447211
      0.2318174274
      0.2897347865
     -0.1773735288
      0.0362199862
     -0.0500915541
     -0.0341069131
      0.3334748376
     -0.1274071850
      0.1529678581
      0.0577256862
     -0.1149196514
     -0.1141924434
     -0.0691944830
      0.0511483059
      0.1205435346
      0.3294975174
     -0.1149078554
      0.0401554302
      0.0040510443
      0.3291468238
     -0.6464646769
     -0.0556252029
      0.0962739793
     -0.2164774952
      0.2443216555
      0.2778098247
     -0.0709252616
     -0.1734495545
      0.0820484390
      0.3811341124
      0.1490610111
      0.1125443618
      0.2650230261
      0.0419689327
      0.1227666860
     -1.5005962776
     -0.7603223454
      0.0499187772
      1.0843256623
      0.4685802609
     -0.6258735813
      0.7459091173
     -0.3982726655
     -0.1447471079
     -0.6716863684
     -0.3621020762
     -0.1104015697
     -0.6306015727
      0.1833658844
     -0.2012582992
      0.3642991064
     -0.0759412411
     -1.3307350015
      0.3082617829
      0.5836024197
      0.1482866729
     -0.2865474871
      0.1453242705
     -0.2662593308
      0.4056576817
      0.2946611174
      0.0135857516
     -0.2129139081
      0.4992957199
     -0.1308492316
      0.0637941865
      0.0937996382
     -0.0726709176
      0.1376029609
      0.1342669298
     -0.0284297239
      0.1628538456
      0.1863885636
      0.3435772080
      0.1620988902
     -0.1531368413
     -0.0295206059
     -0.0125258825
      0.0503582317
     -0.1901744303
      0.1811150921
      0.0513289735
      0.1655566430
     -0.0955881474
      0.0296473730
     -0.0792805066
      0.0978104333
     -0.2131122557
      0.1429958330
      0.1047577324
      0.2315322248
      0.0133297027
      0.1129049686
      0.0852492299
     -0.0525040354
      0.3527762823
      0.0368182722
     -0.1626846413
      0.0337698585
      0.4381286683
      0.1503510987
     -0.2084532206
     -0.0451802503
     -0.0492180848
      0.3750785263
     -0.1562272293
      0.2257130134
      0.0978614207
      0.1086587149
      0.0138252607
     -0.4768651492
     -0.1988027712
     -0.0365525656
     -0.0067757075
      0.1349760661
      0.1377556639
     -0.4536311740
     -0.2086464832
      0.0431251637
     -0.0809538214
     -0.0952995485
      0.0147780620
     -0.2176524343
      0.0671194934
     -0.0353281177
      0.4312234845
     -0.2456329028
     -0.2203159587
      0.2310635071
      0.3065314256
     -0.0512146443
     -0.2396793473
      0.0617994928
      0.1350576692
      0.2322263430
      0.1593450174
      0.2281437281
     -0.4358085537
     -0.4439612816
      0.2807595136
     -0.4543049778
      0.2629066107
     -0.1238919111
     -0.1968508071
     -0.0759844547
      0.0514680276
      0.0460805557
      0.3347515986
     -0.0633024621
     -0.2002370709
     -0.0090997388
     -0.2713848746
      0.5390248825
      0.0620083646
      0.0376255485
     -0.1089818571
     -0.1826404518
     -0.0826167630
     -0.2022425768
      0.2889411671
     -0.3019093778
     -0.2837172347
      0.0969919503
     -0.1825726581
     -0.0763011790
      0.1873144379
      0.1813349348
      0.2847944082
      0.1316695007
     -0.0127919384
      0.1969029399
      0.0715445148
      0.2746196540
      0.0057600947
      0.0562134463
     -0.0464509148
      0.0772138302
      0.4436171976
     -0.5211938777
      0.0347466989
      0.3176938267
     -0.4827088678
     -0.4413848933
      0.3177772455
      0.2944053194
      0.8289169287
      0.3236267194
      0.2445098657
      0.0340459557
      0.2647223142
     -0.0730201800
      0.1032854269
      0.1937157544
      0.5208981216
     -0.2672209198
      0.2320995868
      0.0319846908
      0.0877410434
     -0.0109784075
      0.4140741501
     -0.1742659200
      0.1470158385
     -0.0195327847
      0.4126771112
      0.5887694840
      0.4778465593
      0.0425740710
     -0.2941566056
     -0.2254447082
      0.2145079392
      0.0301050703
      0.2123124835
      0.6898398167
      0.0916734656
     -0.1368851767
     -0.4778461093
     -0.0078102151
     -0.2100630184
      0.2117351782
      0.5625704441
     -0.2460126250
     -0.1918160971
      0.1436671324
     -0.5884557409
     -0.0591476258
     -0.3357631235
     -0.5290987470
     -0.0146099023
      0.2480835899
      0.0463510655
     -0.1242777224
     -0.0661855603
     -0.3618434062
     -0.6355362349
      0.1195073166
     -0.0712887239
      0.2791563499
     -0.2533002204
      0.1232415673
      0.1449425063
      0.2259482182
     -0.2142396579
      0.0437457196
     -0.1762464208
     -0.0753490754
      0.2118421284
     -0.1783142812
      0.3020983152
     -0.0875999659
      0.2530814212
     -0.3817564887
      0.0595914867
      0.1092773775
      0.0018121980
     -0.0174775994
      0.2662870399
      0.0324721929
     -0.0616905898
      0.2363870580
      0.1842649578
     -0.0880015716
     -0.0495218538
     -0.0491304444
     -0.3062129754
     -0.0184580634
      0.0313790981
     -0.2950499094
      0.2623872680
      0.4559936681
      0.2149248223
     -0.0237414245
      0.0304686882
      0.1824187972
      0.2693879544
      0.2203092286
      1.3474234464
      0.5262450690
      0.6349306950
     -0.9937996513
     -0.8569513202
      0.1241964276
     -0.5347060488
      1.0352909438
     -0.0927156828
      0.4543484361
      0.8382068685
     -0.1050777626
      0.5256613695
      0.4089845268
     -0.0974538178
      0.3602716983
      0.1541644608
      1.6948335535
     -0.5488103214
     -0.9294377122
      0.1390893637
     -0.0593605694
      0.0063796439
     -0.0107659484
      0.3916613036
     -0.6320602389
      0.2251184667
     -0.6007344321
     -0.2159089318
     -0.3698606425
      0.0260002578
      0.0657044858
      0.2864691984
     -0.1373018981
     -0.3016623624
     -0.2963022735
      0.1637286606
      0.2664966153
      0.3990266987
      0.2385855558
     -0.0595967303
      0.1253699763
      0.2903154716
      0.1779395148
      0.1524521175
     -0.4222578400
      0.0690363819
     -0.4007105546
     -0.7930997262
      0.1785777992
      0.1644743637
     -0.1207488931
      0.4709746381
      0.0330416232
     -0.0368996545
      0.4508034458
      0.0971849160
     -0.1212922143
     -0.1770566549
     -0.2372412427
     -0.1175393652
      0.1359612908
     -1.0845360890
      0.0507746842
      0.7130042956
      0.7811154095
     -0.8184018879
      0.1116950010
      0.7642927392
      0.4502023899
      0.2196745306
      0.3761822743
     -0.1680185122
      1.8380864801
     -1.5465794300
      0.6114843752
     -1.2059956460
      1.4464991864
      0.0055354704
     -0.9436019213
      0.4064917878
      0.2016142971
     -0.7160413454
      0.9488329284
     -0.4489192605
      0.5345202934
     -0.1711813017
      0.2979703670
     -0.5248966672
     -0.5465159132
     -0.8118063648
      0.5283335387
      0.6304024680
     -0.1655012676
     -0.0787540719
     -0.9280691915
     -0.2389786708
      0.1497928581
      0.6324529995
      0.7892995913
      0.3234144958
      0.6554710744
     -0.3226446806
      0.5072822144
      0.1802771040
     -0.0721827482
     -0.4244475901
      1.0049189456
     -0.2341157370
      0.1806532421
      0.3656940303
     -0.0302182468
     -0.3035926663
     -0.1553255992
      0.8471658184
     -0.3590196202
      0.2097090995
      0.1941128627
      0.8708444194
      0.1975295443
     -0.8557321794
     -0.5869889674
      0.3039068972
      1.0733030605
      0.1681610183
     -0.8673019910
      0.1516324113
      0.2297471412
      0.2284934783
      0.4208181212
      0.2362025810
      0.1355437834
      0.4181689992
     -0.9563355580
      0.6295460870
     -1.2223875588
      0.6427590655
      0.7176379717
     -0.2270746896
      0.8913794210
      0.3998034367
      0.2288068480
     -0.1187841196
      0.6528293534
      0.1602924491
     -0.3680516268
      0.8948898762
      0.2832068626
      0.3054213524
      0.2864938602
      0.2716150871
      0.4033112521
      0.2292820991
      0.1748910277
      1.5010590941
      0.2121452347
     -0.5078242591
     -0.7203686085
      0.2297446869
     -0.5032414691
     -0.2068730845
      0.2201833334
      0.3065092022
      0.7197802162
     -0.5067139811
     -0.0526470239
     -0.1404598144
     -0.1580706422
      0.2805254413
     -0.0526830671
      0.7723173830
     -0.2824396974
      0.4220774211
     -0.2320169039
     -0.8664360722
     -0.1329576942
      0.4818846280
     -0.2725296651
      0.0970221708
      0.3252227823
     -0.2684700992
      0.6241145439
     -0.4780262465
      0.1643370184
     -0.1417767094
      0.2871308976
      0.5297718857
     -0.5772686095
      0.6404903444
      0.0775739949
      0.3226483198
     -0.0482957978
     -0.1995412497
      0.3631350470
     -1.2974089538
     -0.9168367432
      0.3300139903
     -0.2095274815
     -0.0883861577
      0.1515423106
      0.1961042070
      0.1759148811
     -0.1246711270
      0.5298274066
     -0.7216609146
     -0.3435091979
      0.4258597589
      0.6306749913
      0.2133670088
     -1.5716857489
     -1.0640982664
     -0.7733350134
      1.1310044799
      0.3090126157
     -1.4917560083
      0.2112475023
      0.1714343729
     -0.2614003905
      1.0723460725
     -0.2857255368
      0.8736386874
      0.2999711297
      0.6518383845
      0.2820510266
     -0.7857223778
      0.7154817542
     -0.4954419630
      0.4686460110
     -0.3027097538
     -0.3904720631
      0.3680889209
     -0.1870582272
      0.1792532364
     -0.0913544406
     -0.3103638229
      0.4867680179
      0.1542872234
      0.6827969636
      0.7394723539
      0.7506178160
      0.3172830211
      0.0689032704
     -0.2579339975
      0.4333374911
     -0.7602941218
     -0.1580566230
      0.0332865273
      0.2955112197
     -0.1065189932
      0.4468925233
      0.4276018923
     -0.2864971304
      0.6848612051
     -0.1935684092
     -0.1758909728
     -0.1579999611
     -0.1522996474
      0.2715642754
      0.0095457182
      0.8580795390
     -0.4388264279
      0.6454489973
      1.2544390214
      0.2356471429
      0.3155383677
      0.1150048514
      0.4504606695
     -0.4478424319
     -0.1271874051
     -0.3525723333
      0.3185776695
     -0.7298332626
      1.1721034636
     -0.7712269908
      0.4472716640
     -0.8741355823
      0.3531775436
     -0.1012890939
     -0.3558964595
     -0.4910583131
     -0.3568992922
      0.5817683561
     -0.9757638460
      0.1542318724
      0.7265647935
     -0.1739392569
      0.9812782725
     -0.7172723534
     -0.3895240656
      0.6287538612
     -0.2766986556
      0.0034654420
     -0.4794589223
     -0.6736098216
     -1.0426925810
     -0.6497824573
      0.7459298847
     -0.8735749413
     -1.5105630099
      0.3855095768
     -0.0599138332
     -0.2441593559
     -0.0760981032
     -0.3393703597
      0.5235628190
      0.2885649532
     -0.1344792875
     -0.2949024024
     -0.5112212251
     -0.4362434099
     -0.6005710246
      0.2664872900
     -0.2569822798
     -0.0470662481
     -0.5870056943
     -0.3147602202
      0.7451428208
     -0.1376328736
     -0.0888530515
      0.4374594456
     -0.3139122604
     -0.1783252584
     -0.3480759567
      0.2873467463
     -0.0054649259
     -0.3486184979
     -0.6524272606
      0.8892097999
      0.5426949256
      0.6780691155
     -0.2662771963
     -0.2993152958
     -0.6918222899
      0.0412486612
      0.7444712372
      0.0913789706
      0.3091575866
     -0.5297373218
      0.9188033012
      0.0616067997
      0.8531680381
     -0.1130024738
     -0.3054868291
      0.2571816164
      0.3359542957
      0.3386131579
     -0.1084925180
      0.2136253391
      0.5164088944
     -0.7221280489
      0.1224879400
      0.5666209839
     -0.4558306640
     -0.0392143872
      0.6051110876
      0.0169126408
      0.1261812019
     -0.0434067436
     -0.2405528625
      0.3324368217
      0.0037056770
     -0.3204990261
     -0.0609296676
      0.5709405347
     -0.3484771283
     -0.1925981919
     -0.4220443863
     -0.3419838684
     -0.4892866994
      0.2841646484
     -0.1274090830
     -0.5371291772
      0.4421448684
      0.2647713018
     -0.0712993225
      0.6052020526
     -0.2164541647
     -0.1555957616
     -0.2409585257
      0.5096615820
      0.2623343061
      0.1049200831
     -0.2572200200
     -0.2796507452
      0.5851423442
      1.0165499491
      0.2327653276
     -0.6375576197
      0.1394559415
     -0.5539571855
     -0.1925225907
     -0.0842695277
      0.3791085309
     -0.0351729466
     -1.0659791100
     -0.5080362687
     -0.4255829091
     -0.4872757861
     -0.3946986688
      0.1534314778
     -0.3596392691
      0.0233786520
     -0.8632299016
      0.2623297884
      0.2394524703
     -0.7804608386
     -0.4849893726
      0.4502503227
     -0.3325010514
     -0.0970480915
      0.5667014836
      0.6747870038
     -0.5618514766
      0.4525310833
     -0.2293839906
      0.1357600429
      0.7436625178
     -0.1685618798
      0.4310103173
      0.5027964476
      0.6945327414
      0.7421625003
     -0.0231949993
      1.1868631476
      0.4083835649
     -1.0469773575
     -0.1295313295
      0.3169207169
     -0.3669825635
     -0.1081797773
     -0.2237317524
      0.7464514221
      0.2277130512
     -0.6546057496
     -0.2249435695
     -0.5016462464
      0.5392284281
     -0.2090811845
      0.4349832652
      0.6679775041
      0.1852865407
     -0.3738686227
      0.4174763209
     -0.5452207179
     -0.5140229930
     -0.7044146545
     -0.3212770822
      0.1431135466
     -0.2117760871
     -0.4359916240
      0.0600001590
     -0.4548806034
     -0.2963368631
     -0.0774674390
      1.2225126370
     -0.6338260278
     -0.3283905190
     -0.3882832483
     -0.0918745690
     -0.6917376958
     -0.0194622674
      0.2248832069
      0.9786998876
     -0.6014566783
     -0.0972631316
      0.5546997135
     -0.3852109103
     -0.2198947741
      0.6240588033
     -0.5242644069
      0.5823442129
      0.2449169484
     -0.1031513280
     -0.0311108124
      0.5172681609
      0.3896081155
      0.1257442452
     -0.3258814572
      0.4141442628
      0.3509864062
     -0.5190458809
      0.7167530067
      0.3439681164
      0.1720851580
     -0.6199153723
      0.6803410328
     -0.3655065795
     -0.0594614330
      0.2388297222
     -1.1426094085
      1.5180824472
     -1.4890486994
      0.5808421680
      0.3492541689
     -1.2655808182
     -1.3530430492
     -1.3551329962
     -0.6352843857
     -1.5214203085
     -0.4632058718
     -0.0404091852
     -0.0915384710
      0.0039800346
      0.0066824748
      0.0149081533
     -0.1123754871
     -0.0139202912
      0.0185303897
     -0.0261305956
     -0.0409640720
      0.0966650629
      0.0616157477
      0.0096403998
     -0.0068678738
      0.0687856263
     -0.0524382486
     -0.0219664067
     -0.0483947132
     -0.1022345956
     -0.0292302508
     -0.1232885630
